{"learner":{"attributes":{"scikit_learn":"{\"_estimator_type\": \"classifier\"}"},"feature_names":["SPY_Log_Ret","SPY_Vol_30d","RSI","BB_Width","Trend_Signal"],"feature_types":["float","float","float","float","int"],"gradient_booster":{"model":{"cats":{"enc":[],"feature_segments":[],"sorted_idx":[]},"gbtree_model_param":{"num_parallel_tree":"1","num_trees":"100"},"iteration_indptr":[0,1,2,3,4,5,6,7,8,9,10,11,12,13,14,15,16,17,18,19,20,21,22,23,24,25,26,27,28,29,30,31,32,33,34,35,36,37,38,39,40,41,42,43,44,45,46,47,48,49,50,51,52,53,54,55,56,57,58,59,60,61,62,63,64,65,66,67,68,69,70,71,72,73,74,75,76,77,78,79,80,81,82,83,84,85,86,87,88,89,90,91,92,93,94,95,96,97,98,99,100],"tree_info":[0,0,0,0,0,0,0,0,0,0,0,0,0,0,0,0,0,0,0,0,0,0,0,0,0,0,0,0,0,0,0,0,0,0,0,0,0,0,0,0,0,0,0,0,0,0,0,0,0,0,0,0,0,0,0,0,0,0,0,0,0,0,0,0,0,0,0,0,0,0,0,0,0,0,0,0,0,0,0,0,0,0,0,0,0,0,0,0,0,0,0,0,0,0,0,0,0,0,0,0],"trees":[{"base_weights":[2.5211548E-2,-9.084976E-1,3.6320087E-1,2.9290208E-1,-1.364841E0,4.174216E-1,-1.1749091E-1,1.0980098E0,-5.071232E-1,2.819431E-1,-1.7515663E0,4.60471E-1,-1.1014684E0,1.8305808E-2,6.357616E-2,2.2054343E-2,-1.1613711E-1,-8.9591704E-2,3.5534825E-2,-1.3777225E-1,-6.293516E-2,-8.9591704E-2,2.4143813E-2,-1.1301189E-1,2.8326973E-2],"categories":[],"categories_nodes":[],"categories_segments":[],"categories_sizes":[],"default_left":[0,0,0,0,0,0,0,0,0,0,0,0,0,0,0,0,0,0,0,0,0,0,0,0,0],"id":0,"left_children":[1,3,5,7,9,11,-1,13,15,17,19,21,23,-1,-1,-1,-1,-1,-1,-1,-1,-1,-1,-1,-1],"loss_changes":[1.0741168E2,4.9998665E1,3.7733643E1,1.7127888E1,4.2360786E1,1.6579353E1,0E0,1.2030172E0,2.4418158E1,1.315555E1,2.2941147E1,1.2962822E1,1.4944515E1,0E0,0E0,0E0,0E0,0E0,0E0,0E0,0E0,0E0,0E0,0E0,0E0],"parents":[2147483647,0,0,1,1,2,2,3,3,4,4,5,5,7,7,8,8,9,9,10,10,11,11,12,12],"right_children":[2,4,6,8,10,12,-1,14,16,18,20,22,24,-1,-1,-1,-1,-1,-1,-1,-1,-1,-1,-1,-1],"split_conditions":[1.5196759E-1,3.0823478E-2,7.518101E1,1.004426E-1,4.0234257E1,1.5925221E-1,-1.1749091E-1,2.886378E-2,-2.8733735E-4,3.4735077E1,4.061017E-2,-2.9922424E-2,3.1077155E-1,1.8305808E-2,6.357616E-2,2.2054343E-2,-1.1613711E-1,-8.9591704E-2,3.5534825E-2,-1.3777225E-1,-6.293516E-2,-8.9591704E-2,2.4143813E-2,-1.1301189E-1,2.8326973E-2],"split_indices":[1,3,2,1,2,3,0,3,0,2,3,0,1,0,0,0,0,0,0,0,0,0,0,0,0],"split_type":[0,0,0,0,0,0,0,0,0,0,0,0,0,0,0,0,0,0,0,0,0,0,0,0,0],"sum_hessian":[3.383132E2,8.9467545E1,2.4884564E2,2.472721E1,6.474033E1,2.4479938E2,4.046271E0,1.2138812E1,1.2588398E1,1.2363605E1,5.2376728E1,2.3872997E2,6.069406E0,2.9223065E0,9.216505E0,8.76692E0,3.821478E0,1.5735497E0,1.0790055E1,1.5735497E1,3.664123E1,1.5735497E0,2.3715642E2,3.3718925E0,2.6975138E0],"tree_param":{"num_deleted":"0","num_feature":"5","num_nodes":"25","size_leaf_vector":"1"}},{"base_weights":[2.2776281E-2,-8.545197E-1,3.463042E-1,2.7987978E-1,-1.2750032E0,3.9884216E-1,-1.096409E-1,1.0668241E0,-4.8558918E-1,2.6573285E-1,-1.6257085E0,4.4058204E-1,-1.0443367E0,1.7703306E-2,6.1903525E-2,2.12029E-2,-1.0849642E-1,-8.540593E-2,3.4278836E-2,-1.1270455E-1,-4.9436335E-2,9.540663E-3,3.276814E-2,-1.0584175E-1,2.7481476E-2],"categories":[],"categories_nodes":[],"categories_segments":[],"categories_sizes":[],"default_left":[0,0,0,0,0,0,0,0,0,0,0,0,0,0,0,0,0,0,0,0,0,0,0,0,0],"id":1,"left_children":[1,3,5,7,9,11,-1,13,15,17,19,21,23,-1,-1,-1,-1,-1,-1,-1,-1,-1,-1,-1,-1],"loss_changes":[9.64744E1,4.4042313E1,3.3994553E1,1.5931167E1,3.6633743E1,1.516354E1,0E0,1.13976E0,2.1845848E1,1.2177952E1,1.967221E1,1.2638855E1,1.3399977E1,0E0,0E0,0E0,0E0,0E0,0E0,0E0,0E0,0E0,0E0,0E0,0E0],"parents":[2147483647,0,0,1,1,2,2,3,3,4,4,5,5,7,7,8,8,9,9,10,10,11,11,12,12],"right_children":[2,4,6,8,10,12,-1,14,16,18,20,22,24,-1,-1,-1,-1,-1,-1,-1,-1,-1,-1,-1,-1],"split_conditions":[1.5196759E-1,3.0823478E-2,7.518101E1,1.004426E-1,4.0234257E1,1.5925221E-1,-1.096409E-1,2.886378E-2,-2.8733735E-4,3.4735077E1,4.9144886E-2,8.3076164E-2,3.1077155E-1,1.7703306E-2,6.1903525E-2,2.12029E-2,-1.0849642E-1,-8.540593E-2,3.4278836E-2,-1.1270455E-1,-4.9436335E-2,9.540663E-3,3.276814E-2,-1.0584175E-1,2.7481476E-2],"split_indices":[1,3,2,1,2,3,0,3,0,2,3,3,1,0,0,0,0,0,0,0,0,0,0,0,0],"split_type":[0,0,0,0,0,0,0,0,0,0,0,0,0,0,0,0,0,0,0,0,0,0,0,0,0],"sum_hessian":[3.3785974E2,9.0584526E1,2.472752E2,2.4586994E1,6.5997536E1,2.430883E2,4.1869097E0,1.1929316E1,1.265768E1,1.2281985E1,5.371555E1,2.3693047E2,6.157833E0,2.905151E0,9.024164E0,8.70479E0,3.9528897E0,1.6160123E0,1.0665973E1,2.5762314E1,2.7953236E1,1.10416016E2,1.2651445E2,3.484955E0,2.672878E0],"tree_param":{"num_deleted":"0","num_feature":"5","num_nodes":"25","size_leaf_vector":"1"}},{"base_weights":[2.0903563E-2,-8.061365E-1,3.3061373E-1,2.6788974E-1,-1.1956667E0,3.814727E-1,-1.0295787E-1,1.0374084E0,-4.6577138E-1,2.5053576E-1,-1.5161363E0,-9.1862984E-2,4.0592209E-1,1.7120847E-2,6.034258E-2,2.0383624E-2,-1.01970844E-1,-8.161991E-2,3.3072263E-2,-1.1810722E-1,-5.4572273E-2,2.220147E-2,-4.6435148E-2],"categories":[],"categories_nodes":[],"categories_segments":[],"categories_sizes":[],"default_left":[0,0,0,0,0,0,0,0,0,0,0,0,0,0,0,0,0,0,0,0,0,0,0],"id":2,"left_children":[1,3,5,7,9,11,-1,13,15,17,19,-1,21,-1,-1,-1,-1,-1,-1,-1,-1,-1,-1],"loss_changes":[8.687872E1,3.8984802E1,3.0772488E1,1.4831236E1,3.1897095E1,1.3896511E1,0E0,1.0839615E0,1.9662504E1,1.1288044E1,1.7473862E1,0E0,1.26491165E1,0E0,0E0,0E0,0E0,0E0,0E0,0E0,0E0,0E0,0E0],"parents":[2147483647,0,0,1,1,2,2,3,3,4,4,5,5,7,7,8,8,9,9,10,10,12,12],"right_children":[2,4,6,8,10,12,-1,14,16,18,20,-1,22,-1,-1,-1,-1,-1,-1,-1,-1,-1,-1],"split_conditions":[1.5196759E-1,3.0823478E-2,7.518101E1,1.004426E-1,4.0234257E1,-2.9922424E-2,-1.0295787E-1,2.886378E-2,-2.8733735E-4,3.4735077E1,4.061017E-2,-9.1862984E-2,1.5925221E-1,1.7120847E-2,6.034258E-2,2.0383624E-2,-1.01970844E-1,-8.161991E-2,3.3072263E-2,-1.1810722E-1,-5.4572273E-2,2.220147E-2,-4.6435148E-2],"split_indices":[1,3,2,1,2,0,0,3,0,2,3,0,3,0,0,0,0,0,0,0,0,0,0],"split_type":[0,0,0,0,0,0,0,0,0,0,0,0,0,0,0,0,0,0,0,0,0,0,0],"sum_hessian":[3.371404E2,9.141796E1,2.4572244E2,2.4414291E1,6.700367E1,2.4142482E2,4.2976184E0,1.1713882E1,1.270041E1,1.2193872E1,5.4809795E1,1.8232478E0,2.3960158E2,2.8882444E0,8.825638E0,8.643703E0,4.056706E0,1.6518517E0,1.0542021E1,1.6793718E1,3.8016075E1,2.3359897E2,6.0026064E0],"tree_param":{"num_deleted":"0","num_feature":"5","num_nodes":"23","size_leaf_vector":"1"}},{"base_weights":[1.8830465E-2,1.18176475E-1,-1.1712416E-1,-5.834013E-1,3.6450273E-1,2.5679475E-1,-9.239653E-1,-8.741137E-2,3.883576E-1,5.0478112E-2,-2.237354E-2,-8.601376E-2,-7.2759837E-3,2.126088E-2,-4.3981265E-2],"categories":[],"categories_nodes":[],"categories_segments":[],"categories_sizes":[],"default_left":[0,0,0,0,0,0,0,0,0,0,0,0,0,0,0],"id":3,"left_children":[1,3,-1,5,7,9,11,-1,13,-1,-1,-1,-1,-1,-1],"loss_changes":[7.936438E1,5.6287575E1,0E0,2.4474556E1,1.2813566E1,1.3818665E1,3.7246815E1,0E0,1.1539772E1,0E0,0E0,0E0,0E0,0E0,0E0],"parents":[2147483647,0,0,1,1,3,3,4,4,5,5,6,6,8,8],"right_children":[2,4,-1,6,8,10,12,-1,14,-1,-1,-1,-1,-1,-1],"split_conditions":[7.518101E1,1.5196759E-1,-1.1712416E-1,3.0823478E-2,-2.9922424E-2,1.004426E-1,4.8861746E-2,-8.741137E-2,1.5925221E-1,5.0478112E-2,-2.237354E-2,-8.601376E-2,-7.2759837E-3,2.126088E-2,-4.3981265E-2],"split_indices":[2,1,0,3,0,1,3,0,3,0,0,0,0,0,0],"split_type":[0,0,0,0,0,0,0,0,0,0,0,0,0,0,0],"sum_hessian":[3.3613513E2,3.234757E2,1.2659429E1,8.370413E1,2.3977158E2,2.4213541E1,5.949059E1,1.8699689E0,2.379016E2,1.1494225E1,1.27193165E1,2.8809778E1,3.068081E1,2.3182709E2,6.074512E0],"tree_param":{"num_deleted":"0","num_feature":"5","num_nodes":"15","size_leaf_vector":"1"}},{"base_weights":[1.7262002E-2,-7.222923E-1,3.0108017E-1,2.467639E-1,-1.0617121E0,3.4826598E-1,-9.122314E-2,9.8139536E-1,-4.2417544E-1,2.624272E-1,-1.3489376E0,-8.341244E-2,3.7152088E-1,1.489675E-2,5.76979E-2,2.0460557E-2,-9.516225E-2,-7.608345E-2,3.287239E-2,-1.0511762E-1,-4.8458487E-2,2.0357694E-2,-4.1710265E-2],"categories":[],"categories_nodes":[],"categories_segments":[],"categories_sizes":[],"default_left":[0,0,0,0,0,0,0,0,0,0,0,0,0,0,0,0,0,0,0,0,0,0,0],"id":4,"left_children":[1,3,5,7,9,11,-1,13,15,17,19,-1,21,-1,-1,-1,-1,-1,-1,-1,-1,-1,-1],"loss_changes":[7.076444E1,3.1017952E1,2.506667E1,1.2771715E1,2.6763733E1,1.1834101E1,0E0,1.1030111E0,1.77889E1,1.0313571E1,1.4335815E1,0E0,1.0532085E1,0E0,0E0,0E0,0E0,0E0,0E0,0E0,0E0,0E0,0E0],"parents":[2147483647,0,0,1,1,2,2,3,3,4,4,5,5,7,7,8,8,9,9,10,10,12,12],"right_children":[2,4,6,8,10,12,-1,14,16,18,20,-1,22,-1,-1,-1,-1,-1,-1,-1,-1,-1,-1],"split_conditions":[1.5196759E-1,3.0823478E-2,7.518101E1,1.004426E-1,4.0234257E1,-2.9922424E-2,-9.122314E-2,2.886378E-2,-2.8733735E-4,3.4735077E1,4.061017E-2,-8.341244E-2,1.5925221E-1,1.489675E-2,5.76979E-2,2.0460557E-2,-9.516225E-2,-7.608345E-2,3.287239E-2,-1.0511762E-1,-4.8458487E-2,2.0357694E-2,-4.1710265E-2],"split_indices":[1,3,2,1,2,0,0,3,0,2,3,0,3,0,0,0,0,0,0,0,0,0,0],"split_type":[0,0,0,0,0,0,0,0,0,0,0,0,0,0,0,0,0,0,0,0,0,0,0],"sum_hessian":[3.3509973E2,9.25068E1,2.4259293E2,2.4067158E1,6.8439644E1,2.3814246E2,4.450473E0,1.1267413E1,1.2799745E1,1.2214743E1,5.62249E1,1.908542E0,2.362339E2,2.8209906E0,8.446423E0,8.649492E0,4.1502523E0,1.6972136E0,1.0517529E1,1.7322739E1,3.890216E1,2.3009616E2,6.1377497E0],"tree_param":{"num_deleted":"0","num_feature":"5","num_nodes":"23","size_leaf_vector":"1"}},{"base_weights":[1.5438512E-2,1.0819046E-1,-1.05616115E-1,-5.5870104E-1,3.2515228E-1,2.1531E-2,-1.3510842E0,-7.980355E-2,3.4719896E-1,-8.004259E-2,7.910119E-3,-1.2128225E-2,-9.3980744E-2,2.6405958E-2,2.7206624E-3],"categories":[],"categories_nodes":[],"categories_segments":[],"categories_sizes":[],"default_left":[0,0,0,0,0,0,0,0,0,0,0,0,0,0,0],"id":5,"left_children":[1,3,-1,5,7,9,11,-1,13,-1,-1,-1,-1,-1,-1],"loss_changes":[6.628491E1,4.672561E1,0E0,3.650309E1,1.0861582E1,1.0626137E1,1.9201023E1,0E0,1.2758921E1,0E0,0E0,0E0,0E0,0E0,0E0],"parents":[2147483647,0,0,1,1,3,3,4,4,5,5,6,6,8,8],"right_children":[2,4,-1,6,8,10,12,-1,14,-1,-1,-1,-1,-1,-1],"split_conditions":[7.518101E1,5.2574605E-2,-1.05616115E-1,4.3654745E-4,-2.9922424E-2,8.265042E-2,3.0823478E-2,-7.980355E-2,5.5197643E1,-8.004259E-2,7.910119E-3,-1.2128225E-2,-9.3980744E-2,2.6405958E-2,2.7206624E-3],"split_indices":[2,3,0,0,0,1,3,0,2,0,0,0,0,0,0],"split_type":[0,0,0,0,0,0,0,0,0,0,0,0,0,0,0],"sum_hessian":[3.337102E2,3.2068048E2,1.302974E1,7.833164E1,2.4234883E2,4.5780876E1,3.2550766E1,1.9394957E0,2.4040933E2,2.7246208E0,4.3056255E1,1.0980217E1,2.1570547E1,1.4809418E2,9.231516E1],"tree_param":{"num_deleted":"0","num_feature":"5","num_nodes":"15","size_leaf_vector":"1"}},{"base_weights":[1.3838348E-2,1.025701E-1,-9.978255E-2,-5.312313E-1,3.1064373E-1,1.8967044E-2,-1.2741334E0,3.4648633E-1,-8.718676E-1,-4.038234E-2,1.3786337E-2,-1.1532827E-2,-8.836469E-2,2.679335E-2,2.5885908E-3,-9.4003625E-2,3.0463262E-2],"categories":[],"categories_nodes":[],"categories_segments":[],"categories_sizes":[],"default_left":[0,0,0,0,0,0,0,0,0,0,0,0,0,0,0,0,0],"id":6,"left_children":[1,3,-1,5,7,9,11,13,15,-1,-1,-1,-1,-1,-1,-1,-1],"loss_changes":[5.9688267E1,4.2424873E1,0E0,3.2547623E1,1.0553944E1,1.0134118E1,1.7022144E1,1.3115076E1,1.21960535E1,0E0,0E0,0E0,0E0,0E0,0E0,0E0,0E0],"parents":[2147483647,0,0,1,1,3,3,4,4,5,5,6,6,7,7,8,8],"right_children":[2,4,-1,6,8,10,12,14,16,-1,-1,-1,-1,-1,-1,-1,-1],"split_conditions":[7.518101E1,5.2574605E-2,-9.978255E-2,4.3654745E-4,1.5925221E-1,1.0293094E-1,3.0823478E-2,5.5197643E1,3.1077155E-1,-4.038234E-2,1.3786337E-2,-1.1532827E-2,-8.836469E-2,2.679335E-2,2.5885908E-3,-9.4003625E-2,3.0463262E-2],"split_indices":[2,3,0,0,3,1,3,2,1,0,0,0,0,0,0,0,0],"split_type":[0,0,0,0,0,0,0,0,0,0,0,0,0,0,0,0,0],"sum_hessian":[3.326048E2,3.194481E2,1.3156712E1,7.856934E1,2.4087874E2,4.5698902E1,3.287044E1,2.3447856E2,6.4001875E0,1.0322154E1,3.5376747E1,1.1020307E1,2.1850136E1,1.4225111E2,9.222744E1,3.6477928E0,2.7523947E0],"tree_param":{"num_deleted":"0","num_feature":"5","num_nodes":"17","size_leaf_vector":"1"}},{"base_weights":[1.2523611E-2,-6.330448E-1,2.65936E-1,2.456325E-1,-9.364928E-1,3.076913E-1,-7.841959E-2,9.7076863E-1,-4.1417077E-1,2.315126E-1,-1.1819682E0,-7.763069E-2,3.2997745E-1,1.5185229E-2,5.701818E-2,1.8992323E-2,-8.939632E-2,-7.236487E-2,3.0781789E-2,-9.423142E-2,-4.166928E-2,5.1454636E-3,2.5994724E-2],"categories":[],"categories_nodes":[],"categories_segments":[],"categories_sizes":[],"default_left":[0,0,0,0,0,0,0,0,0,0,0,0,0,0,0,0,0,0,0,0,0,0,0],"id":7,"left_children":[1,3,5,7,9,11,-1,13,15,17,19,-1,21,-1,-1,-1,-1,-1,-1,-1,-1,-1,-1],"loss_changes":[5.4540554E1,2.528923E1,1.8816982E1,1.2323817E1,2.0362804E1,1.02503605E1,0E0,1.0304794E0,1.5674683E1,9.277175E0,1.2650772E1,0E0,9.991276E0,0E0,0E0,0E0,0E0,0E0,0E0,0E0,0E0,0E0,0E0],"parents":[2147483647,0,0,1,1,2,2,3,3,4,4,5,5,7,7,8,8,9,9,10,10,12,12],"right_children":[2,4,6,8,10,12,-1,14,16,18,20,-1,22,-1,-1,-1,-1,-1,-1,-1,-1,-1,-1],"split_conditions":[1.5196759E-1,3.0823478E-2,7.518101E1,1.004426E-1,4.0234257E1,-2.9922424E-2,-7.841959E-2,2.886378E-2,-2.8733735E-4,3.4735077E1,4.061017E-2,-7.763069E-2,8.3076164E-2,1.5185229E-2,5.701818E-2,1.8992323E-2,-8.939632E-2,-7.236487E-2,3.0781789E-2,-9.423142E-2,-4.166928E-2,5.1454636E-3,2.5994724E-2],"split_indices":[1,3,2,1,2,0,0,3,0,2,3,0,3,0,0,0,0,0,0,0,0,0,0],"split_type":[0,0,0,0,0,0,0,0,0,0,0,0,0,0,0,0,0,0,0,0,0,0,0],"sum_hessian":[3.3135855E2,9.298389E1,2.3837468E2,2.3917595E1,6.906629E1,2.33883E2,4.4916844E0,1.1170122E1,1.2747473E1,1.2004434E1,5.706186E1,1.9558303E0,2.3192715E2,2.8299408E0,8.340181E0,8.53679E0,4.2106833E0,1.7198845E0,1.0284549E1,1.7460026E1,3.9601833E1,1.0633408E2,1.2559308E2],"tree_param":{"num_deleted":"0","num_feature":"5","num_nodes":"23","size_leaf_vector":"1"}},{"base_weights":[1.1138073E-2,9.405345E-2,-9.2201024E-2,-4.83338E-1,2.855968E-1,3.0638387E-2,-1.1731453E0,3.2066077E-1,-8.561058E-1,-1.0453246E-2,4.2670067E-2,-1.0753566E-2,-8.1024125E-2,2.5176669E-2,1.9566147E-3,-9.0599045E-2,2.906265E-2],"categories":[],"categories_nodes":[],"categories_segments":[],"categories_sizes":[],"default_left":[0,0,0,0,0,0,0,0,0,0,0,0,0,0,0,0,0],"id":8,"left_children":[1,3,-1,5,7,9,11,13,15,-1,-1,-1,-1,-1,-1,-1,-1],"loss_changes":[5.104754E1,3.5256226E1,0E0,2.821183E1,9.844988E0,9.351824E0,1.4204765E1,1.195908E1,1.1214757E1,0E0,0E0,0E0,0E0,0E0,0E0,0E0,0E0],"parents":[2147483647,0,0,1,1,3,3,4,4,5,5,6,6,7,7,8,8],"right_children":[2,4,-1,6,8,10,12,14,16,-1,-1,-1,-1,-1,-1,-1,-1],"split_conditions":[7.518101E1,5.2574605E-2,-9.2201024E-2,4.3654745E-4,1.5925221E-1,1.461157E-1,3.0823478E-2,5.5197643E1,3.1077155E-1,-1.0453246E-2,4.2670067E-2,-1.0753566E-2,-8.1024125E-2,2.5176669E-2,1.9566147E-3,-9.0599045E-2,2.906265E-2],"split_indices":[2,3,0,0,3,1,3,2,1,0,0,0,0,0,0,0,0],"split_type":[0,0,0,0,0,0,0,0,0,0,0,0,0,0,0,0,0],"sum_hessian":[3.297354E2,3.1653723E2,1.319817E1,7.847064E1,2.3806659E2,4.5513813E1,3.2956825E1,2.3167065E2,6.395935E0,3.5823048E1,9.690766E0,1.0961364E1,2.1995462E1,1.3996497E2,9.170568E1,3.6848183E0,2.7111168E0],"tree_param":{"num_deleted":"0","num_feature":"5","num_nodes":"17","size_leaf_vector":"1"}},{"base_weights":[1.01367505E-2,8.953608E-2,-8.818199E-2,-4.3528175E-1,2.8161052E-1,-2.3915574E-1,-1.4037576E0,-7.5555556E-2,3.0352592E-1,4.197148E-3,-5.8485985E-2,-1.01201944E-1,4.6843212E-2,1.860155E-2,-1.4385335E-2],"categories":[],"categories_nodes":[],"categories_segments":[],"categories_sizes":[],"default_left":[0,0,0,0,0,0,0,0,0,0,0,0,0,0,0],"id":9,"left_children":[1,3,-1,5,7,9,11,-1,13,-1,-1,-1,-1,-1,-1],"loss_changes":[4.6532043E1,3.1988754E1,0E0,1.5826502E1,9.574713E0,2.173561E1,2.2402485E1,0E0,9.425049E0,0E0,0E0,0E0,0E0,0E0,0E0],"parents":[2147483647,0,0,1,1,3,3,4,4,5,5,6,6,8,8],"right_children":[2,4,-1,6,8,10,12,-1,14,-1,-1,-1,-1,-1,-1],"split_conditions":[7.518101E1,1.5196759E-1,-8.818199E-2,1.3106884E-1,-2.9922424E-2,6.238554E1,6.86395E-2,-7.5555556E-2,1.4865897E-2,4.197148E-3,-5.8485985E-2,-1.01201944E-1,4.6843212E-2,1.860155E-2,-1.4385335E-2],"split_indices":[2,1,0,1,0,2,3,0,0,0,0,0,0,0,0],"split_type":[0,0,0,0,0,0,0,0,0,0,0,0,0,0,0],"sum_hessian":[3.28276E2,3.1511984E2,1.3156148E1,8.408971E1,2.3103015E2,7.096544E1,1.312427E1,1.9694972E0,2.2906065E2,5.3351273E1,1.7614162E1,1.0481781E1,2.6424894E0,2.0560797E2,2.3452671E1],"tree_param":{"num_deleted":"0","num_feature":"5","num_nodes":"15","size_leaf_vector":"1"}},{"base_weights":[8.909654E-3,8.489852E-2,-8.4643535E-2,-4.4528708E-1,2.6266915E-1,3.7565995E-2,-1.0906303E0,2.966214E-1,-8.2904243E-1,3.6984526E-2,-1.1864665E-2,-1.0258186E-2,-7.7410154E-2,2.976534E-3,2.5816122E-2,-8.678946E-2,2.8002396E-2],"categories":[],"categories_nodes":[],"categories_segments":[],"categories_sizes":[],"default_left":[0,0,0,0,0,0,0,0,0,0,0,0,0,0,0,0,0],"id":10,"left_children":[1,3,-1,5,7,9,11,13,15,-1,-1,-1,-1,-1,-1,-1,-1],"loss_changes":[4.255048E1,2.9793495E1,0E0,2.47934E1,9.00946E0,9.130935E0,1.3470318E1,1.1951616E1,1.0286171E1,0E0,0E0,0E0,0E0,0E0,0E0,0E0,0E0],"parents":[2147483647,0,0,1,1,3,3,4,4,5,5,6,6,7,7,8,8],"right_children":[2,4,-1,6,8,10,12,14,16,-1,-1,-1,-1,-1,-1,-1,-1],"split_conditions":[7.518101E1,5.2574605E-2,-8.4643535E-2,4.3654745E-4,1.5925221E-1,3.0578595E-2,1.004426E-1,8.3076164E-2,3.1077155E-1,3.6984526E-2,-1.1864665E-2,-1.0258186E-2,-7.7410154E-2,2.976534E-3,2.5816122E-2,-8.678946E-2,2.8002396E-2],"split_indices":[2,3,0,0,3,3,1,3,1,0,0,0,0,0,0,0,0],"split_type":[0,0,0,0,0,0,0,0,0,0,0,0,0,0,0,0,0],"sum_hessian":[3.2693036E2,3.1386557E2,1.3064793E1,7.843503E1,2.3543056E2,4.5404587E1,3.3030437E1,2.2903583E2,6.394722E0,1.2298098E1,3.310649E1,1.1746911E1,2.1283527E1,1.1076959E2,1.18266235E2,3.7180982E0,2.6766238E0],"tree_param":{"num_deleted":"0","num_feature":"5","num_nodes":"17","size_leaf_vector":"1"}},{"base_weights":[8.013117E-3,8.079725E-2,-8.150464E-2,-4.2410025E-1,2.5093466E-1,3.6383405E-2,-1.0377545E0,-7.354017E-2,2.718751E-1,-3.7342954E-2,1.4032602E-2,1.405449E-3,-6.9187276E-2,2.1870721E-2,5.8364036E-4],"categories":[],"categories_nodes":[],"categories_segments":[],"categories_sizes":[],"default_left":[0,0,0,0,0,0,0,0,0,0,0,0,0,0,0],"id":11,"left_children":[1,3,-1,5,7,9,11,-1,13,-1,-1,-1,-1,-1,-1],"loss_changes":[3.9043568E1,2.7030972E1,0E0,2.2466026E1,8.874836E0,9.069768E0,1.2599495E1,0E0,1.003463E1,0E0,0E0,0E0,0E0,0E0,0E0],"parents":[2147483647,0,0,1,1,3,3,4,4,5,5,6,6,8,8],"right_children":[2,4,-1,6,8,10,12,-1,14,-1,-1,-1,-1,-1,-1],"split_conditions":[7.518101E1,5.2574605E-2,-8.150464E-2,4.3654745E-4,-2.9922424E-2,1.0293094E-1,4.800335E1,-7.354017E-2,5.5197643E1,-3.7342954E-2,1.4032602E-2,1.405449E-3,-6.9187276E-2,2.1870721E-2,5.8364036E-4],"split_indices":[2,3,0,0,0,1,2,0,2,0,0,0,0,0,0],"split_type":[0,0,0,0,0,0,0,0,0,0,0,0,0,0,0],"sum_hessian":[3.253648E2,3.1243347E2,1.293133E1,7.8370255E1,2.3406322E2,4.53103E1,3.3059956E1,1.9805864E0,2.3208263E2,1.0282414E1,3.5027885E1,8.32687E0,2.4733088E1,1.4142668E2,9.065595E1],"tree_param":{"num_deleted":"0","num_feature":"5","num_nodes":"15","size_leaf_vector":"1"}},{"base_weights":[6.994572E-3,7.667307E-2,-7.870138E-2,-3.8540018E-1,2.4827382E-1,2.767174E-1,-6.479576E-1,2.8243667E-1,-8.1352836E-1,4.8843503E-2,-1.8592076E-2,-6.348332E-2,-2.145377E-3,2.6259415E-3,2.433542E-2,-8.389851E-2,2.6817545E-2],"categories":[],"categories_nodes":[],"categories_segments":[],"categories_sizes":[],"default_left":[0,0,0,0,0,0,0,0,0,0,0,0,0,0,0,0,0],"id":12,"left_children":[1,3,-1,5,7,9,11,13,15,-1,-1,-1,-1,-1,-1,-1,-1],"loss_changes":[3.5915886E1,2.484803E1,0E0,1.4943413E1,8.508962E0,1.1631721E1,2.2933672E1,1.0394571E1,9.502612E0,0E0,0E0,0E0,0E0,0E0,0E0,0E0,0E0],"parents":[2147483647,0,0,1,1,3,3,4,4,5,5,6,6,7,7,8,8],"right_children":[2,4,-1,6,8,10,12,14,16,-1,-1,-1,-1,-1,-1,-1,-1],"split_conditions":[7.518101E1,1.5196759E-1,-7.870138E-2,3.0823478E-2,1.5925221E-1,1.004426E-1,4.8861746E-2,8.3076164E-2,3.1077155E-1,4.8843503E-2,-1.8592076E-2,-6.348332E-2,-2.145377E-3,2.6259415E-3,2.433542E-2,-8.389851E-2,2.6817545E-2],"split_indices":[2,1,0,3,3,1,3,3,1,0,0,0,0,0,0,0,0],"split_type":[0,0,0,0,0,0,0,0,0,0,0,0,0,0,0,0,0],"sum_hessian":[3.239287E2,3.1116653E2,1.2762165E1,8.392741E1,2.2723914E2,2.3815508E1,6.0111897E1,2.2086687E2,6.372258E0,1.1208808E1,1.2606701E1,2.9106041E1,3.1005854E1,1.04501915E2,1.1636496E2,3.7364445E0,2.6358135E0],"tree_param":{"num_deleted":"0","num_feature":"5","num_nodes":"17","size_leaf_vector":"1"}},{"base_weights":[6.2705055E-3,7.305618E-2,-7.618255E-2,-1.6997834E-1,3.7216923E-1,-6.443682E-2,-1.3689205E-1,-1.1896396E-1,5.894736E-1,4.2226177E-2,-1.8069683E-2,-7.6758295E-2,1.0323837E-2,-1.7374277E-2,3.5310026E-2],"categories":[],"categories_nodes":[],"categories_segments":[],"categories_sizes":[],"default_left":[0,0,0,0,0,0,0,0,0,0,0,0,0,0,0],"id":13,"left_children":[1,3,-1,5,7,9,-1,11,13,-1,-1,-1,-1,-1,-1],"loss_changes":[3.3131676E1,2.2642687E1,0E0,4.6452866E1,1.4963898E1,4.5189262E1,0E0,2.0429276E1,1.0844742E1,0E0,0E0,0E0,0E0,0E0,0E0],"parents":[2147483647,0,0,1,1,3,3,4,4,5,5,7,7,8,8],"right_children":[2,4,-1,6,8,10,-1,12,14,-1,-1,-1,-1,-1,-1],"split_conditions":[7.518101E1,7.7840835E-2,-7.618255E-2,7.254825E-2,3.955037E1,3.9667404E1,-1.3689205E-1,-1.1169431E-2,8.3076164E-2,4.2226177E-2,-1.8069683E-2,-7.6758295E-2,1.0323837E-2,-1.7374277E-2,3.5310026E-2],"split_indices":[2,3,0,3,2,2,0,0,3,0,0,0,0,0,0],"split_type":[0,0,0,0,0,0,0,0,0,0,0,0,0,0,0],"sum_hessian":[3.221688E2,3.096058E2,1.2562975E1,1.7105357E2,1.3855225E2,1.652853E2,5.768284E0,4.263799E1,9.591426E1,4.0247402E1,1.2503789E2,7.272681E0,3.5365307E1,1.0406336E1,8.550792E1],"tree_param":{"num_deleted":"0","num_feature":"5","num_nodes":"15","size_leaf_vector":"1"}},{"base_weights":[5.4324456E-3,6.935458E-2,-7.390675E-2,-3.5723227E-1,2.2898896E-1,-1.741825E-1,-1.2655168E0,2.9436678E-1,-3.3424675E-1,6.0485634E-3,-5.096605E-2,-9.243047E-2,4.5957174E-2,-6.863818E-2,1.5888484E-2,-1.17587484E-1,-6.158951E-4],"categories":[],"categories_nodes":[],"categories_segments":[],"categories_sizes":[],"default_left":[0,0,0,0,0,0,0,0,0,0,0,0,0,0,0,0,0],"id":14,"left_children":[1,3,-1,5,7,9,11,13,15,-1,-1,-1,-1,-1,-1,-1,-1],"loss_changes":[3.0622854E1,2.1157734E1,0E0,1.3856795E1,8.413979E0,1.7990438E1,1.9586674E1,8.351347E0,1.5529502E1,0E0,0E0,0E0,0E0,0E0,0E0,0E0,0E0],"parents":[2147483647,0,0,1,1,3,3,4,4,5,5,6,6,7,7,8,8],"right_children":[2,4,-1,6,8,10,12,14,16,-1,-1,-1,-1,-1,-1,-1,-1],"split_conditions":[7.518101E1,1.5196759E-1,-7.390675E-2,1.3106884E-1,1.4865897E-2,6.238554E1,6.86395E-2,-2.9922424E-2,1.6508322E-2,6.0485634E-3,-5.096605E-2,-9.243047E-2,4.5957174E-2,-6.863818E-2,1.5888484E-2,-1.17587484E-1,-6.158951E-4],"split_indices":[2,1,0,1,0,2,3,0,0,0,0,0,0,0,0,0,0],"split_type":[0,0,0,0,0,0,0,0,0,0,0,0,0,0,0,0,0],"sum_hessian":[3.2083322E2,3.0849445E2,1.2338778E1,8.3669304E1,2.2482513E2,7.0627304E1,1.3042E1,2.0187032E2,2.2954819E1,5.298117E1,1.764613E1,1.041581E1,2.6261897E0,1.9964052E0,1.998739E2,2.2911537E0,2.0663664E1],"tree_param":{"num_deleted":"0","num_feature":"5","num_nodes":"17","size_leaf_vector":"1"}},{"base_weights":[4.161488E-3,6.536899E-2,-7.184003E-2,-1.608563E-1,3.4697765E-1,-5.9360106E-2,-1.2666129E-1,-1.23551756E-1,5.5820787E-1,4.0484842E-2,-1.6839877E-2,-7.1951E-2,9.345362E-3,-1.7063098E-2,3.3646386E-2],"categories":[],"categories_nodes":[],"categories_segments":[],"categories_sizes":[],"default_left":[0,0,0,0,0,0,0,0,0,0,0,0,0,0,0],"id":15,"left_children":[1,3,-1,5,7,9,-1,11,13,-1,-1,-1,-1,-1,-1],"loss_changes":[2.8342623E1,1.9689957E1,0E0,4.1165215E1,1.37458725E1,4.019318E1,0E0,1.8015583E1,1.0048336E1,0E0,0E0,0E0,0E0,0E0,0E0],"parents":[2147483647,0,0,1,1,3,3,4,4,5,5,7,7,8,8],"right_children":[2,4,-1,6,8,10,-1,12,14,-1,-1,-1,-1,-1,-1],"split_conditions":[7.518101E1,7.7840835E-2,-7.184003E-2,7.254825E-2,3.955037E1,3.9667404E1,-1.2666129E-1,-1.1169431E-2,8.3076164E-2,4.0484842E-2,-1.6839877E-2,-7.1951E-2,9.345362E-3,-1.7063098E-2,3.3646386E-2],"split_indices":[2,3,0,3,2,2,0,0,3,0,0,0,0,0,0],"split_type":[0,0,0,0,0,0,0,0,0,0,0,0,0,0,0],"sum_hessian":[3.1928845E2,3.0719443E2,1.209401E1,1.7058601E2,1.3660843E2,1.6457028E2,6.015728E0,4.2454124E1,9.4154305E1,3.935972E1,1.2521056E2,7.4122033E0,3.504192E1,1.0426872E1,8.372743E1],"tree_param":{"num_deleted":"0","num_feature":"5","num_nodes":"15","size_leaf_vector":"1"}},{"base_weights":[3.4363444E-3,6.205012E-2,-6.995435E-2,-3.5271308E-1,2.0480576E-1,7.535816E-2,-9.2901045E-1,2.367459E-1,-7.9429144E-1,-3.4680188E-2,1.5611881E-2,-5.2378513E-3,-6.833514E-2,2.0417014E-2,-1.0157068E-3,-8.0752246E-2,2.5734827E-2],"categories":[],"categories_nodes":[],"categories_segments":[],"categories_sizes":[],"default_left":[0,0,0,0,0,0,0,0,0,0,0,0,0,0,0,0,0],"id":16,"left_children":[1,3,-1,5,7,9,11,13,15,-1,-1,-1,-1,-1,-1,-1,-1],"loss_changes":[2.6297335E1,1.8249779E1,0E0,1.9553324E1,7.496545E0,8.6394615E0,1.2027645E1,9.831644E0,8.700399E0,0E0,0E0,0E0,0E0,0E0,0E0,0E0,0E0],"parents":[2147483647,0,0,1,1,3,3,4,4,5,5,6,6,7,7,8,8],"right_children":[2,4,-1,6,8,10,12,14,16,-1,-1,-1,-1,-1,-1,-1,-1],"split_conditions":[7.518101E1,5.2574605E-2,-6.995435E-2,4.3654745E-4,1.5925221E-1,1.0293094E-1,1.004426E-1,5.5197643E1,3.1077155E-1,-3.4680188E-2,1.5611881E-2,-5.2378513E-3,-6.833514E-2,2.0417014E-2,-1.0157068E-3,-8.0752246E-2,2.5734827E-2],"split_indices":[2,3,0,0,3,1,1,2,1,0,0,0,0,0,0,0,0],"split_type":[0,0,0,0,0,0,0,0,0,0,0,0,0,0,0,0,0],"sum_hessian":[3.1783493E2,3.0600235E2,1.1832587E1,7.797692E1,2.2802542E2,4.524119E1,3.273573E1,2.217009E2,6.3245163E0,1.02004E1,3.504079E1,1.1783886E1,2.0951841E1,1.3259903E2,8.910187E1,3.743487E0,2.5810294E0],"tree_param":{"num_deleted":"0","num_feature":"5","num_nodes":"17","size_leaf_vector":"1"}},{"base_weights":[2.659422E-3,5.882693E-2,-6.82263E-2,-1.5249592E-1,3.2458475E-1,-5.4721557E-2,-1.1807497E-1,-1.3290614E-1,5.318724E-1,3.870914E-2,-1.5645698E-2,-6.841008E-2,8.309479E-3,-1.6531155E-2,3.222246E-2],"categories":[],"categories_nodes":[],"categories_segments":[],"categories_sizes":[],"default_left":[0,0,0,0,0,0,0,0,0,0,0,0,0,0,0],"id":17,"left_children":[1,3,-1,5,7,9,-1,11,13,-1,-1,-1,-1,-1,-1],"loss_changes":[2.4437475E1,1.7213814E1,0E0,3.6789078E1,1.2939213E1,3.5492855E1,0E0,1.6156275E1,9.2999115E0,0E0,0E0,0E0,0E0,0E0,0E0],"parents":[2147483647,0,0,1,1,3,3,4,4,5,5,7,7,8,8],"right_children":[2,4,-1,6,8,10,-1,12,14,-1,-1,-1,-1,-1,-1],"split_conditions":[7.518101E1,7.7840835E-2,-6.82263E-2,7.254825E-2,3.955037E1,3.9667404E1,-1.1807497E-1,-1.1169431E-2,8.3076164E-2,3.870914E-2,-1.5645698E-2,-6.841008E-2,8.309479E-3,-1.6531155E-2,3.222246E-2],"split_indices":[2,3,0,3,2,2,0,0,3,0,0,0,0,0,0],"split_type":[0,0,0,0,0,0,0,0,0,0,0,0,0,0,0],"sum_hessian":[3.1618658E2,3.0462863E2,1.1557958E1,1.699308E2,1.3469783E2,1.637095E2,6.2212973E0,4.211264E1,9.258519E1,3.84074E1,1.253021E2,7.5121675E0,3.460047E1,1.0465788E1,8.21194E1],"tree_param":{"num_deleted":"0","num_feature":"5","num_nodes":"15","size_leaf_vector":"1"}},{"base_weights":[2.0141946E-3,3.0223012E-1,-2.3872608E-1,-4.3417168E-1,4.6383184E-1,-5.375144E-1,3.564543E-1,2.7186295E-1,-1.5621707E0,5.6294173E-1,-3.146515E-1,-1.727697E0,-3.3284077E-1,5.011829E-1,-5.872337E-2,3.760154E-2,-9.914552E-2,-1.2248408E-1,1.5642898E-2,3.3734523E-2,-1.04355E-3,-1.13539614E-1,1.9356837E-2,-1.0780902E-1,-2.6770392E-3,2.8406983E-2,-2.7636787E-2,4.723566E-2,1.4114216E-2],"categories":[],"categories_nodes":[],"categories_segments":[],"categories_sizes":[],"default_left":[0,0,0,0,0,0,0,0,0,0,0,0,0,0,0,0,0,0,0,0,0,0,0,0,0,0,0,0,0],"id":18,"left_children":[1,3,5,7,9,11,13,15,17,19,21,23,25,27,-1,-1,-1,-1,-1,-1,-1,-1,-1,-1,-1,-1,-1,-1,-1],"loss_changes":[2.2885767E1,1.6970928E1,3.1443638E1,2.1031952E1,9.130297E0,2.8023594E1,1.373596E1,1.9643291E1,1.7589302E1,6.7530403E0,1.9750086E1,1.20709305E1,2.040597E1,5.0647707E0,0E0,0E0,0E0,0E0,0E0,0E0,0E0,0E0,0E0,0E0,0E0,0E0,0E0,0E0,0E0],"parents":[2147483647,0,0,1,1,2,2,3,3,4,4,5,5,6,6,7,7,8,8,9,9,10,10,11,11,12,12,13,13],"right_children":[2,4,6,8,10,12,14,16,18,20,22,24,26,28,-1,-1,-1,-1,-1,-1,-1,-1,-1,-1,-1,-1,-1,-1,-1],"split_conditions":[4.8351738E1,-1.1545006E-2,8.4129065E-2,6.713528E-2,1.4865897E-2,5.447518E1,7.518101E1,3.9667404E1,1.4569439E-1,1.226567E-1,1.0671464E-1,1.6787248E-2,5.682177E1,-1.07398415E-2,-5.872337E-2,3.760154E-2,-9.914552E-2,-1.2248408E-1,1.5642898E-2,3.3734523E-2,-1.04355E-3,-1.13539614E-1,1.9356837E-2,-1.0780902E-1,-2.6770392E-3,2.8406983E-2,-2.7636787E-2,4.723566E-2,1.4114216E-2],"split_indices":[2,0,3,3,0,2,2,2,3,3,3,0,2,0,0,0,0,0,0,0,0,0,0,0,0,0,0,0,0],"split_type":[0,0,0,0,0,0,0,0,0,0,0,0,0,0,0,0,0,0,0,0,0,0,0,0,0,0,0,0,0],"sum_hessian":[3.1465424E2,1.3991605E2,1.7473817E2,2.48753E1,1.1504075E2,1.164005E2,5.8337677E1,1.5766041E1,9.109258E0,1.0229437E2,1.2746377E1,1.5988091E1,1.0041241E2,5.391349E1,4.424187E0,1.3547491E1,2.2185497E0,5.9747443E0,3.1345134E0,8.572914E1,1.6565235E1,2.775188E0,9.971189E0,1.2500734E1,3.487357E0,1.9388365E1,8.102404E1,1.671994E1,3.719355E1],"tree_param":{"num_deleted":"0","num_feature":"5","num_nodes":"29","size_leaf_vector":"1"}},{"base_weights":[1.0473412E-3,5.3622533E-2,-6.576019E-2,-3.3385846E-1,1.7833342E-1,2.9637387E-1,-7.166852E-1,2.084751E-1,-7.706016E-1,2.5776116E-2,-8.3552234E-2,2.2427603E-3,-5.854829E-2,7.6207765E-3,4.7517482E-2,-7.784609E-2,2.4870316E-2],"categories":[],"categories_nodes":[],"categories_segments":[],"categories_sizes":[],"default_left":[0,0,0,0,0,0,0,0,0,0,0,0,0,0,0,0,0],"id":19,"left_children":[1,3,-1,5,7,9,11,13,15,-1,-1,-1,-1,-1,-1,-1,-1],"loss_changes":[2.1797571E1,1.4694993E1,0E0,1.8088467E1,6.73279E0,1.3238263E1,1.6099735E1,9.149844E0,8.039743E0,0E0,0E0,0E0,0E0,0E0,0E0,0E0,0E0],"parents":[2147483647,0,0,1,1,3,3,4,4,5,5,6,6,7,7,8,8],"right_children":[2,4,-1,6,8,10,12,14,16,-1,-1,-1,-1,-1,-1,-1,-1],"split_conditions":[7.518101E1,5.184779E-2,-6.576019E-2,4.800335E1,1.5925221E-1,4.915584E-2,3.0823478E-2,1.3979977E-1,3.1077155E-1,2.5776116E-2,-8.3552234E-2,2.2427603E-3,-5.854829E-2,7.6207765E-3,4.7517482E-2,-7.784609E-2,2.4870316E-2],"split_indices":[2,3,0,2,3,3,3,3,1,0,0,0,0,0,0,0,0],"split_type":[0,0,0,0,0,0,0,0,0,0,0,0,0,0,0,0,0],"sum_hessian":[3.1296487E2,3.0186664E2,1.1098238E1,7.3091576E1,2.2877507E2,2.7706047E1,4.5385525E1,2.2248833E2,6.2867436E0,2.5593218E1,2.1128283E0,1.7294641E1,2.8090883E1,2.0797798E2,1.4510358E1,3.7397761E0,2.5469675E0],"tree_param":{"num_deleted":"0","num_feature":"5","num_nodes":"17","size_leaf_vector":"1"}},{"base_weights":[4.2862064E-4,5.0827805E-2,-6.435608E-2,-1.3829711E-1,2.9217994E-1,-4.4673033E-2,-1.0916076E-1,-1.4278196E-1,4.922406E-1,3.610817E-2,-1.3746776E-2,-6.1959293E-2,6.671142E-3,-1.4968286E-2,2.9992715E-2],"categories":[],"categories_nodes":[],"categories_segments":[],"categories_sizes":[],"default_left":[0,0,0,0,0,0,0,0,0,0,0,0,0,0,0],"id":20,"left_children":[1,3,-1,5,7,9,-1,11,13,-1,-1,-1,-1,-1,-1],"loss_changes":[2.0332182E1,1.3803273E1,0E0,3.2397266E1,1.1625356E1,2.9036049E1,0E0,1.3068838E1,7.94689E0,0E0,0E0,0E0,0E0,0E0,0E0],"parents":[2147483647,0,0,1,1,3,3,4,4,5,5,7,7,8,8],"right_children":[2,4,-1,6,8,10,-1,12,14,-1,-1,-1,-1,-1,-1],"split_conditions":[7.518101E1,7.7840835E-2,-6.435608E-2,7.254825E-2,3.955037E1,3.9667404E1,-1.0916076E-1,-1.1169431E-2,8.3076164E-2,3.610817E-2,-1.3746776E-2,-6.1959293E-2,6.671142E-3,-1.4968286E-2,2.9992715E-2],"split_indices":[2,3,0,3,2,2,0,0,3,0,0,0,0,0,0],"split_type":[0,0,0,0,0,0,0,0,0,0,0,0,0,0,0],"sum_hessian":[3.1131772E2,3.0051505E2,1.0802677E1,1.6872676E2,1.3178828E2,1.6231712E2,6.409646E0,4.1609436E1,9.017884E1,3.6990955E1,1.25326164E2,7.6713376E0,3.39381E1,1.0578864E1,7.9599976E1],"tree_param":{"num_deleted":"0","num_feature":"5","num_nodes":"15","size_leaf_vector":"1"}},{"base_weights":[-1.0322753E-4,6.250471E-2,-9.883356E-1,1.0576949E-2,1.028008E0,-7.855179E-2,4.025834E-2,2.7152348E-1,-2.4281508E-1,-5.0205108E-2,6.3878156E-2,-2.1599803E-2,2.139372E-2,-2.5281642E-2,1.9397467E-2],"categories":[],"categories_nodes":[],"categories_segments":[],"categories_sizes":[],"default_left":[0,0,0,0,0,0,0,0,0,0,0,0,0,0,0],"id":21,"left_children":[1,3,5,7,9,-1,-1,11,13,-1,-1,-1,-1,-1,-1],"loss_changes":[1.9286102E1,1.4686305E1,2.0673613E1,1.8526642E1,8.864864E0,0E0,0E0,1.5366262E1,2.3765308E1,0E0,0E0,0E0,0E0,0E0,0E0],"parents":[2147483647,0,0,1,1,2,2,3,3,4,4,7,7,8,8],"right_children":[2,4,6,8,10,-1,-1,12,14,-1,-1,-1,-1,-1,-1],"split_conditions":[7.3183945E1,7.16284E1,1.2349662E-1,4.8351738E1,1.1990361E-1,-7.855179E-2,4.025834E-2,-1.1545006E-2,8.3076164E-2,-5.0205108E-2,6.3878156E-2,-2.1599803E-2,2.139372E-2,-2.5281642E-2,1.9397467E-2],"split_indices":[2,2,3,2,1,0,0,0,3,0,0,0,0,0,0],"split_type":[0,0,0,0,0,0,0,0,0,0,0,0,0,0,0],"sum_hessian":[3.0971533E2,2.9214377E2,1.7571568E1,2.7819266E2,1.395111E1,1.3356233E1,4.2153344E0,1.3701807E2,1.411746E2,1.1951903E0,1.2755919E1,2.4593536E1,1.1242452E2,9.979278E1,4.1381824E1],"tree_param":{"num_deleted":"0","num_feature":"5","num_nodes":"15","size_leaf_vector":"1"}},{"base_weights":[-1.3092077E-4,5.9743967E-2,-9.6274716E-1,1.0134996E-2,9.999253E-1,-7.672315E-2,3.9208632E-2,2.5961557E-1,-2.305841E-1,-4.9004544E-2,6.2394615E-2,-2.0414067E-2,2.0522622E-2,-2.392359E-2,1.8629445E-2],"categories":[],"categories_nodes":[],"categories_segments":[],"categories_sizes":[],"default_left":[0,0,0,0,0,0,0,0,0,0,0,0,0,0,0],"id":22,"left_children":[1,3,5,7,9,-1,-1,11,13,-1,-1,-1,-1,-1,-1],"loss_changes":[1.7877832E1,1.3610128E1,1.9344023E1,1.6778782E1,8.404118E0,0E0,0E0,1.3987549E1,2.1442122E1,0E0,0E0,0E0,0E0,0E0,0E0],"parents":[2147483647,0,0,1,1,2,2,3,3,4,4,7,7,8,8],"right_children":[2,4,6,8,10,-1,-1,12,14,-1,-1,-1,-1,-1,-1],"split_conditions":[7.3183945E1,7.16284E1,1.2349662E-1,4.8351738E1,1.1990361E-1,-7.672315E-2,3.9208632E-2,-1.1545006E-2,8.3076164E-2,-4.9004544E-2,6.2394615E-2,-2.0414067E-2,2.0522622E-2,-2.392359E-2,1.8629445E-2],"split_indices":[2,2,3,2,1,0,0,0,3,0,0,0,0,0,0],"split_type":[0,0,0,0,0,0,0,0,0,0,0,0,0,0,0],"sum_hessian":[3.081843E2,2.910207E2,1.7163599E1,2.7739465E2,1.3626039E1,1.30231285E1,4.140471E0,1.3617981E2,1.4121486E2,1.1879274E0,1.243811E1,2.4774216E1,1.1140559E2,1.0022986E2,4.0985E1],"tree_param":{"num_deleted":"0","num_feature":"5","num_nodes":"15","size_leaf_vector":"1"}},{"base_weights":[-1.6050953E-4,5.711018E-2,-9.387158E-1,9.710156E-3,9.734959E-1,-7.502827E-2,3.8191512E-2,1.3274853E-1,-4.3820545E-1,-4.7861043E-2,6.100568E-2,-1.156877E-2,1.2626618E-2,-1.1019536E-1,-9.393027E-3],"categories":[],"categories_nodes":[],"categories_segments":[],"categories_sizes":[],"default_left":[0,0,0,0,0,0,0,0,0,0,0,0,0,0,0],"id":23,"left_children":[1,3,5,7,9,-1,-1,11,13,-1,-1,-1,-1,-1,-1],"loss_changes":[1.6589277E1,1.2625465E1,1.8124819E1,1.5356125E1,7.9748373E0,0E0,0E0,9.590058E0,2.613062E1,0E0,0E0,0E0,0E0,0E0,0E0],"parents":[2147483647,0,0,1,1,2,2,3,3,4,4,7,7,8,8],"right_children":[2,4,6,8,10,-1,-1,12,14,-1,-1,-1,-1,-1,-1],"split_conditions":[7.3183945E1,7.16284E1,1.2349662E-1,6.031822E1,1.1990361E-1,-7.502827E-2,3.8191512E-2,5.2574605E-2,6.170784E1,-4.7861043E-2,6.100568E-2,-1.156877E-2,1.2626618E-2,-1.1019536E-1,-9.393027E-3],"split_indices":[2,2,3,2,1,0,0,3,2,0,0,0,0,0,0],"split_type":[0,0,0,0,0,0,0,0,0,0,0,0,0,0,0],"sum_hessian":[3.0663055E2,2.8988113E2,1.674941E1,2.7658536E2,1.32957735E1,1.2682687E1,4.066723E0,2.175343E2,5.9051075E1,1.179594E0,1.2116179E1,5.361663E1,1.6391766E2,6.3637285E0,5.2687347E1],"tree_param":{"num_deleted":"0","num_feature":"5","num_nodes":"15","size_leaf_vector":"1"}},{"base_weights":[-5.850728E-4,5.4140806E-2,-9.160474E-1,-1.8521502E-3,7.8091234E-1,-7.344984E-2,3.720477E-2,1.2661E-1,-5.249311E-1,-5.5037785E-2,9.8042506E-1,9.488813E-3,-2.5428236E-2,-1.0417809E-1,-1.3340118E-2,5.4532856E-2,2.2856778E-2],"categories":[],"categories_nodes":[],"categories_segments":[],"categories_sizes":[],"default_left":[0,0,0,0,0,0,0,0,0,0,0,0,0,0,0,0,0],"id":24,"left_children":[1,3,5,7,9,-1,-1,11,13,-1,15,-1,-1,-1,-1,-1,-1],"loss_changes":[1.539377E1,1.1800378E1,1.700338E1,1.8222752E1,8.866328E0,0E0,0E0,8.832227E0,2.0956007E1,0E0,6.137295E-1,0E0,0E0,0E0,0E0,0E0,0E0],"parents":[2147483647,0,0,1,1,2,2,3,3,4,4,7,7,8,8,10,10],"right_children":[2,4,6,8,10,-1,-1,12,14,-1,16,-1,-1,-1,-1,-1,-1],"split_conditions":[7.3183945E1,7.0627365E1,1.2349662E-1,6.031822E1,1.0010448E-1,-7.344984E-2,3.720477E-2,2.7379644E-1,6.170784E1,-5.5037785E-2,1.7925788E-1,9.488813E-3,-2.5428236E-2,-1.0417809E-1,-1.3340118E-2,5.4532856E-2,2.2856778E-2],"split_indices":[2,2,3,2,1,0,0,1,2,0,1,0,0,0,0,0,0],"split_type":[0,0,0,0,0,0,0,0,0,0,0,0,0,0,0,0,0],"sum_hessian":[3.0527414E2,2.8894217E2,1.6331959E1,2.691996E2,1.9742601E1,1.2337728E1,3.9942317E0,2.1673091E2,5.246866E1,1.459583E0,1.8283018E1,1.9776498E2,1.8965921E1,6.4500747E0,4.6018585E1,1.4206213E1,4.076804E0],"tree_param":{"num_deleted":"0","num_feature":"5","num_nodes":"17","size_leaf_vector":"1"}},{"base_weights":[-1.0234407E-3,5.1213257E-2,-8.9457834E-1,7.5196414E-3,9.2753434E-1,-7.197327E-2,3.624642E-2,2.3569816E-1,-2.0983683E-1,-4.633404E-2,5.8728643E-2,-2.0120604E-2,1.9122101E-2,-2.212753E-2,1.8096017E-2],"categories":[],"categories_nodes":[],"categories_segments":[],"categories_sizes":[],"default_left":[0,0,0,0,0,0,0,0,0,0,0,0,0,0,0],"id":25,"left_children":[1,3,5,7,9,-1,-1,11,13,-1,-1,-1,-1,-1,-1],"loss_changes":[1.4294142E1,1.1071908E1,1.5969015E1,1.3768265E1,7.3792315E0,0E0,0E0,1.2834169E1,1.9079874E1,0E0,0E0,0E0,0E0,0E0,0E0],"parents":[2147483647,0,0,1,1,2,2,3,3,4,4,7,7,8,8],"right_children":[2,4,6,8,10,-1,-1,12,14,-1,-1,-1,-1,-1,-1],"split_conditions":[7.3183945E1,7.16284E1,1.2349662E-1,4.8351738E1,1.1990361E-1,-7.197327E-2,3.624642E-2,-1.1545006E-2,8.3076164E-2,-4.633404E-2,5.8728643E-2,-2.0120604E-2,1.9122101E-2,-2.212753E-2,1.8096017E-2],"split_indices":[2,2,3,2,1,0,0,0,3,0,0,0,0,0,0],"split_type":[0,0,0,0,0,0,0,0,0,0,0,0,0,0,0],"sum_hessian":[3.042579E2,2.8834418E2,1.5913746E1,2.7561072E2,1.2733447E1,1.1990637E1,3.9231093E0,1.344169E2,1.4119382E2,1.1735896E0,1.1559857E1,2.4806124E1,1.0961078E2,1.0051051E2,4.068331E1],"tree_param":{"num_deleted":"0","num_feature":"5","num_nodes":"15","size_leaf_vector":"1"}},{"base_weights":[-1.0190293E-3,4.896372E-2,-8.7416935E-1,-3.0915155E-3,7.4222606E-1,-7.058622E-2,3.531473E-2,1.1714572E-1,-4.884011E-1,-5.271997E-2,9.375356E-1,-1.1252315E-2,1.1555735E-2,-9.837433E-2,-1.213992E-2,5.2435875E-2,2.0585893E-2],"categories":[],"categories_nodes":[],"categories_segments":[],"categories_sizes":[],"default_left":[0,0,0,0,0,0,0,0,0,0,0,0,0,0,0,0,0],"id":26,"left_children":[1,3,5,7,9,-1,-1,11,13,-1,15,-1,-1,-1,-1,-1,-1],"loss_changes":[1.3297088E1,1.0403011E1,1.5012609E1,1.5758151E1,8.053251E0,0E0,0E0,8.493456E0,1.9000778E1,0E0,6.6078186E-1,0E0,0E0,0E0,0E0,0E0,0E0],"parents":[2147483647,0,0,1,1,2,2,3,3,4,4,7,7,8,8,10,10],"right_children":[2,4,6,8,10,-1,-1,12,14,-1,16,-1,-1,-1,-1,-1,-1],"split_conditions":[7.3183945E1,7.0627365E1,1.2349662E-1,6.031822E1,1.0010448E-1,-7.058622E-2,3.531473E-2,5.2574605E-2,6.170784E1,-5.271997E-2,1.7925788E-1,-1.1252315E-2,1.1555735E-2,-9.837433E-2,-1.213992E-2,5.2435875E-2,2.0585893E-2],"split_indices":[2,2,3,2,1,0,0,3,2,0,1,0,0,0,0,0,0],"split_type":[0,0,0,0,0,0,0,0,0,0,0,0,0,0,0,0,0],"sum_hessian":[3.0270163E2,2.8720477E2,1.5496871E1,2.6807153E2,1.9133242E1,1.1643421E1,3.8534498E0,2.154513E2,5.2620235E1,1.444733E0,1.7688509E1,5.3585663E1,1.6186563E2,6.4949636E0,4.612527E1,1.3780277E1,3.9082322E0],"tree_param":{"num_deleted":"0","num_feature":"5","num_nodes":"17","size_leaf_vector":"1"}},{"base_weights":[-1.3769625E-3,4.6394795E-2,-8.5470223E-1,6.050139E-3,8.857038E-1,-6.92782E-2,3.4408156E-2,2.1945265E-1,-1.9567564E-1,-4.4941682E-2,5.668245E-2,-1.934998E-2,1.8067265E-2,-4.9243163E-2,-2.1669758E-3],"categories":[],"categories_nodes":[],"categories_segments":[],"categories_sizes":[],"default_left":[0,0,0,0,0,0,0,0,0,0,0,0,0,0,0],"id":27,"left_children":[1,3,5,7,9,-1,-1,11,13,-1,-1,-1,-1,-1,-1],"loss_changes":[1.2366813E1,9.723554E0,1.4126321E1,1.1887521E1,6.8464994E0,0E0,0E0,1.1685606E1,1.7025183E1,0E0,0E0,0E0,0E0,0E0,0E0],"parents":[2147483647,0,0,1,1,2,2,3,3,4,4,7,7,8,8],"right_children":[2,4,6,8,10,-1,-1,12,14,-1,-1,-1,-1,-1,-1],"split_conditions":[7.3183945E1,7.16284E1,1.2349662E-1,4.8351738E1,1.1990361E-1,-6.92782E-2,3.4408156E-2,-1.1545006E-2,5.447518E1,-4.4941682E-2,5.668245E-2,-1.934998E-2,1.8067265E-2,-4.9243163E-2,-2.1669758E-3],"split_indices":[2,2,3,2,1,0,0,0,2,0,0,0,0,0,0],"split_type":[0,0,0,0,0,0,0,0,0,0,0,0,0,0,0],"sum_hessian":[3.013968E2,2.8631372E2,1.5083086E1,2.7414316E2,1.217055E1,1.129776E1,3.7853258E0,1.3317332E2,1.4096983E2,1.1644579E0,1.1006093E1,2.492328E1,1.08250046E2,2.1924322E1,1.1904551E2],"tree_param":{"num_deleted":"0","num_feature":"5","num_nodes":"15","size_leaf_vector":"1"}},{"base_weights":[-1.5245555E-3,4.4136733E-2,-8.3607566E-1,5.617194E-3,8.6479706E-1,-6.8040304E-2,3.352533E-2,1.10790014E-1,-3.6889908E-1,-4.3973736E-2,5.5607546E-2,8.661039E-3,-2.5467852E-2,-9.375183E-2,-7.609624E-3],"categories":[],"categories_nodes":[],"categories_segments":[],"categories_sizes":[],"default_left":[0,0,0,0,0,0,0,0,0,0,0,0,0,0,0],"id":28,"left_children":[1,3,5,7,9,-1,-1,11,13,-1,-1,-1,-1,-1,-1],"loss_changes":[1.1513793E1,9.051954E0,1.3303378E1,1.0859665E1,6.517215E0,0E0,0E0,8.420506E0,1.9445564E1,0E0,0E0,0E0,0E0,0E0,0E0],"parents":[2147483647,0,0,1,1,2,2,3,3,4,4,7,7,8,8],"right_children":[2,4,6,8,10,-1,-1,12,14,-1,-1,-1,-1,-1,-1],"split_conditions":[7.3183945E1,7.16284E1,1.2349662E-1,6.031822E1,1.1990361E-1,-6.8040304E-2,3.352533E-2,2.7379644E-1,6.170784E1,-4.3973736E-2,5.5607546E-2,8.661039E-3,-2.5467852E-2,-9.375183E-2,-7.609624E-3],"split_indices":[2,2,3,2,1,0,0,1,2,0,0,0,0,0,0],"split_type":[0,0,0,0,0,0,0,0,0,0,0,0,0,0,0],"sum_hessian":[3.0017795E2,2.8550412E2,1.4673842E1,2.7366583E2,1.1838278E1,1.0955048E1,3.7187948E0,2.1421382E2,5.945201E1,1.1528889E0,1.0685389E1,1.952759E2,1.8937923E1,6.5155716E0,5.293644E1],"tree_param":{"num_deleted":"0","num_feature":"5","num_nodes":"15","size_leaf_vector":"1"}},{"base_weights":[-1.9115579E-3,-2.99346E-1,1.1972822E-1,3.848481E-1,-5.623911E-1,8.66246E-1,6.774582E-2,9.9511373E-1,-1.8591265E-1,-1.048365E0,-1.527822E-1,7.940583E-3,1.0511984E0,-7.65941E-2,8.6333565E-2,1.627135E-2,5.8065634E-2,-7.552337E-2,1.881716E-2,2.820096E-2,-6.1445426E-2,1.2238715E-2,-5.2865107E-2,1.6498111E-2,6.0303356E-2,7.507407E-3,-2.0411134E-2],"categories":[],"categories_nodes":[],"categories_segments":[],"categories_sizes":[],"default_left":[0,0,0,0,0,0,0,0,0,0,0,0,0,0,0,0,0,0,0,0,0,0,0,0,0,0,0],"id":29,"left_children":[1,3,5,7,9,11,13,15,17,19,21,-1,23,-1,25,-1,-1,-1,-1,-1,-1,-1,-1,-1,-1,-1,-1],"loss_changes":[1.0893097E1,1.5944298E1,8.234172E0,8.844666E0,1.2485691E1,1.6422224E0,6.104946E0,9.768772E-1,1.0763295E1,9.101711E0,1.3075994E1,0E0,8.0651855E-1,0E0,6.3579254E0,0E0,0E0,0E0,0E0,0E0,0E0,0E0,0E0,0E0,0E0,0E0,0E0],"parents":[2147483647,0,0,1,1,2,2,3,3,4,4,5,5,6,6,7,7,8,8,9,9,10,10,12,12,14,14],"right_children":[2,4,6,8,10,12,14,16,18,20,22,-1,24,-1,26,-1,-1,-1,-1,-1,-1,-1,-1,-1,-1,-1,-1],"split_conditions":[1.5196759E-1,3.0823478E-2,1.5758446E-1,1.004426E-1,4.8861746E-2,5.427665E-2,1.5933901E-1,2.886378E-2,1.0584817E-1,-1.938899E-2,1.3031559E-1,7.940583E-3,-1.8359604E-3,-7.65941E-2,1.4865897E-2,1.627135E-2,5.8065634E-2,-7.552337E-2,1.881716E-2,2.820096E-2,-6.1445426E-2,1.2238715E-2,-5.2865107E-2,1.6498111E-2,6.0303356E-2,7.507407E-3,-2.0411134E-2],"split_indices":[1,3,1,1,3,3,1,3,1,0,1,0,0,0,0,0,0,0,0,0,0,0,0,0,0,0,0],"split_type":[0,0,0,0,0,0,0,0,0,0,0,0,0,0,0,0,0,0,0,0,0,0,0,0,0,0,0],"sum_hessian":[2.9909122E2,8.638967E1,2.1270154E2,2.386153E1,6.252814E1,1.282714E1,1.9987439E2,1.1172377E1,1.2689154E1,2.7884998E1,3.464314E1,3.0437183E0,9.7834215E0,1.3607087E0,1.9851369E2,2.8095505E0,8.362826E0,3.278728E0,9.410425E0,2.59407E0,2.529093E1,2.457241E1,1.0070731E1,2.2828057E0,7.5006156E0,1.7644295E2,2.2070744E1],"tree_param":{"num_deleted":"0","num_feature":"5","num_nodes":"27","size_leaf_vector":"1"}},{"base_weights":[-2.0115061E-3,4.1271176E-2,-8.154205E-1,4.010631E-3,8.517319E-1,-6.6771075E-2,3.2472335E-2,1.9612138E-1,-1.843602E-1,-4.2534273E-2,5.4759026E-2,-1.9123776E-2,1.6489344E-2,-5.3447843E-2,-1.7785867E-3],"categories":[],"categories_nodes":[],"categories_segments":[],"categories_sizes":[],"default_left":[0,0,0,0,0,0,0,0,0,0,0,0,0,0,0],"id":30,"left_children":[1,3,5,7,9,-1,-1,11,13,-1,-1,-1,-1,-1,-1],"loss_changes":[1.055064E1,8.590453E0,1.2400334E1,9.918335E0,6.1138363E0,0E0,0E0,1.0619539E1,1.8177448E1,0E0,0E0,0E0,0E0,0E0,0E0],"parents":[2147483647,0,0,1,1,2,2,3,3,4,4,7,7,8,8],"right_children":[2,4,6,8,10,-1,-1,12,14,-1,-1,-1,-1,-1,-1],"split_conditions":[7.3183945E1,7.16284E1,1.2349662E-1,4.8815945E1,1.1990361E-1,-6.6771075E-2,3.2472335E-2,-1.1545006E-2,5.447518E1,-4.2534273E-2,5.4759026E-2,-1.9123776E-2,1.6489344E-2,-5.3447843E-2,-1.7785867E-3],"split_indices":[2,2,3,2,1,0,0,0,2,0,0,0,0,0,0],"split_type":[0,0,0,0,0,0,0,0,0,0,0,0,0,0,0],"sum_hessian":[2.9772266E2,2.835821E2,1.4140556E1,2.7207837E2,1.1503725E1,1.0501193E1,3.6393638E0,1.3468163E2,1.3739674E2,1.1271735E0,1.0376552E1,2.4925468E1,1.0975616E2,1.8892166E1,1.1850458E2],"tree_param":{"num_deleted":"0","num_feature":"5","num_nodes":"15","size_leaf_vector":"1"}},{"base_weights":[-2.1527344E-3,3.9228734E-2,-7.9838794E-1,-5.701263E-3,6.730481E-1,-6.5665156E-2,3.1638276E-2,1.03130706E-1,-4.3915498E-1,-4.9296033E-2,8.635042E-1,8.1565E-3,-2.405989E-2,-2.818659E-3,-6.4345E-2,4.9171194E-2,1.5173641E-2],"categories":[],"categories_nodes":[],"categories_segments":[],"categories_sizes":[],"default_left":[0,0,0,0,0,0,0,0,0,0,0,0,0,0,0,0,0],"id":31,"left_children":[1,3,5,7,9,-1,-1,11,13,-1,15,-1,-1,-1,-1,-1,-1],"loss_changes":[9.834741E0,8.08529E0,1.1697628E1,1.2593014E1,6.7893677E0,0E0,0E0,7.5607853E0,1.7311668E1,0E0,8.6953354E-1,0E0,0E0,0E0,0E0,0E0,0E0],"parents":[2147483647,0,0,1,1,2,2,3,3,4,4,7,7,8,8,10,10],"right_children":[2,4,6,8,10,-1,-1,12,14,-1,16,-1,-1,-1,-1,-1,-1],"split_conditions":[7.3183945E1,7.0627365E1,1.2349662E-1,6.031822E1,1.0010448E-1,-6.5665156E-2,3.1638276E-2,2.7379644E-1,3.5276075E-3,-4.9296033E-2,1.7925788E-1,8.1565E-3,-2.405989E-2,-2.818659E-3,-6.4345E-2,4.9171194E-2,1.5173641E-2],"split_indices":[2,2,3,2,1,0,0,1,0,0,1,0,0,0,0,0,0],"split_type":[0,0,0,0,0,0,0,0,0,0,0,0,0,0,0,0,0],"sum_hessian":[2.9652972E2,2.8278378E2,1.3745939E1,2.6499023E2,1.7793543E1,1.0169425E1,3.5765138E0,2.1241815E2,5.257208E1,1.4022868E0,1.6391256E1,1.9329166E2,1.9126503E1,3.6953148E1,1.5618933E1,1.28777275E1,3.5135288E0],"tree_param":{"num_deleted":"0","num_feature":"5","num_nodes":"17","size_leaf_vector":"1"}},{"base_weights":[-2.3788475E-3,-2.8444758E-1,1.11675836E-1,3.6763883E-1,-5.3578705E-1,8.399696E-1,6.183205E-2,9.6280634E-1,-1.8045408E-1,-1.1857972E0,-2.4576934E-1,7.79861E-3,1.0233233E0,-7.411852E-2,7.98237E-2,1.5594536E-2,5.6356966E-2,-7.267352E-2,1.7916482E-2,2.7691323E-2,-7.4694E-2,3.7202265E-3,-5.4385018E-2,1.5605885E-2,5.8984667E-2,5.581361E-3,-3.9081093E-2],"categories":[],"categories_nodes":[],"categories_segments":[],"categories_sizes":[],"default_left":[0,0,0,0,0,0,0,0,0,0,0,0,0,0,0,0,0,0,0,0,0,0,0,0,0,0,0],"id":32,"left_children":[1,3,5,7,9,11,13,15,17,19,21,-1,23,-1,25,-1,-1,-1,-1,-1,-1,-1,-1,-1,-1,-1,-1],"loss_changes":[9.573662E0,1.423954E1,7.6408343E0,8.142951E0,1.1443649E1,1.5328321E0,5.658814E0,9.181347E-1,9.82141E0,1.0980375E1,1.2024321E1,0E0,7.953253E-1,0E0,5.513881E0,0E0,0E0,0E0,0E0,0E0,0E0,0E0,0E0,0E0,0E0,0E0,0E0],"parents":[2147483647,0,0,1,1,2,2,3,3,4,4,5,5,6,6,7,7,8,8,9,9,10,10,12,12,14,14],"right_children":[2,4,6,8,10,12,14,16,18,20,22,-1,24,-1,26,-1,-1,-1,-1,-1,-1,-1,-1,-1,-1,-1,-1],"split_conditions":[1.5196759E-1,3.0823478E-2,1.5758446E-1,1.004426E-1,4.061017E-2,5.427665E-2,1.5933901E-1,2.886378E-2,1.0584817E-1,-1.938899E-2,1.3031559E-1,7.79861E-3,-1.8359604E-3,-7.411852E-2,1.5925221E-1,1.5594536E-2,5.6356966E-2,-7.267352E-2,1.7916482E-2,2.7691323E-2,-7.4694E-2,3.7202265E-3,-5.4385018E-2,1.5605885E-2,5.8984667E-2,5.581361E-3,-3.9081093E-2],"split_indices":[1,3,1,1,3,3,1,3,1,0,1,0,0,0,3,0,0,0,0,0,0,0,0,0,0,0,0],"split_type":[0,0,0,0,0,0,0,0,0,0,0,0,0,0,0,0,0,0,0,0,0,0,0,0,0,0,0],"sum_hessian":[2.955969E2,8.468022E1,2.1091669E2,2.3429905E1,6.1250317E1,1.2494911E1,1.9842177E2,1.0869834E1,1.2560071E1,1.794404E1,4.3306274E1,3.032583E0,9.462329E0,1.34782E0,1.9707394E2,2.7752213E0,8.094612E0,3.2301989E0,9.329872E0,2.5797188E0,1.5364321E1,3.203534E1,1.1270937E1,2.245467E0,7.2168617E0,1.908967E2,6.1772523E0],"tree_param":{"num_deleted":"0","num_feature":"5","num_nodes":"27","size_leaf_vector":"1"}},{"base_weights":[-2.6303336E-3,3.6585722E-2,-7.7894694E-1,1.6678651E-3,8.2367253E-1,-6.453585E-2,6.136172E-1,9.783608E-2,-3.3880046E-1,-4.089174E-2,5.326978E-2,1.3927725E-2,3.789829E-2,-1.057374E-2,1.0037681E-2,-8.799105E-2,-6.748594E-3],"categories":[],"categories_nodes":[],"categories_segments":[],"categories_sizes":[],"default_left":[0,0,0,0,0,0,0,0,0,0,0,0,0,0,0,0,0],"id":33,"left_children":[1,3,5,7,9,-1,11,13,15,-1,-1,-1,-1,-1,-1,-1,-1],"loss_changes":[9.015466E0,7.7477355E0,1.094031E1,8.905671E0,5.622944E0,0E0,6.732583E-3,6.7935143E0,1.711422E1,0E0,0E0,0E0,0E0,0E0,0E0,0E0,0E0],"parents":[2147483647,0,0,1,1,2,2,3,3,4,4,6,6,7,7,8,8],"right_children":[2,4,6,8,10,-1,12,14,16,-1,-1,-1,-1,-1,-1,-1,-1],"split_conditions":[7.3183945E1,7.16284E1,1.2349662E-1,6.031822E1,1.1990361E-1,-6.453585E-2,2.9593399E-3,5.2574605E-2,6.170784E1,-4.089174E-2,5.326978E-2,1.3927725E-2,3.789829E-2,-1.057374E-2,1.0037681E-2,-8.799105E-2,-6.748594E-3],"split_indices":[2,2,3,2,1,0,0,3,2,0,0,0,0,0,0,0,0],"split_type":[0,0,0,0,0,0,0,0,0,0,0,0,0,0,0,0,0],"sum_hessian":[2.9419598E2,2.8095618E2,1.3239781E1,2.6998102E2,1.0975161E1,9.735209E0,3.5045726E0,2.11074E2,5.890703E1,1.1028059E0,9.8723545E0,1.9373415E0,1.5672312E0,5.2433693E1,1.586403E2,6.431947E0,5.2475082E1],"tree_param":{"num_deleted":"0","num_feature":"5","num_nodes":"17","size_leaf_vector":"1"}},{"base_weights":[-2.830992E-3,3.461291E-2,-7.611381E-1,1.2462161E-3,8.054102E-1,-6.353094E-2,6.012568E-1,9.324221E-2,-3.2326284E-1,-4.0087573E-2,5.2342534E-2,3.7670482E-2,1.3001944E-2,7.548331E-3,-2.2990217E-2,-8.460706E-2,-6.4084604E-3],"categories":[],"categories_nodes":[],"categories_segments":[],"categories_sizes":[],"default_left":[0,0,0,0,0,0,0,0,0,0,0,0,0,0,0,0,0],"id":34,"left_children":[1,3,5,7,9,-1,11,13,15,-1,-1,-1,-1,-1,-1,-1,-1],"loss_changes":[8.371647E0,7.2269897E0,1.0393697E1,8.101887E0,5.3635454E0,0E0,3.536582E-2,6.8193007E0,1.5791715E1,0E0,0E0,0E0,0E0,0E0,0E0,0E0,0E0],"parents":[2147483647,0,0,1,1,2,2,3,3,4,4,6,6,7,7,8,8],"right_children":[2,4,6,8,10,-1,12,14,16,-1,-1,-1,-1,-1,-1,-1,-1],"split_conditions":[7.3183945E1,7.16284E1,1.2349662E-1,6.031822E1,1.1990361E-1,-6.353094E-2,1.3348001E-1,2.7379644E-1,6.170784E1,-4.0087573E-2,5.2342534E-2,3.7670482E-2,1.3001944E-2,7.548331E-3,-2.2990217E-2,-8.460706E-2,-6.4084604E-3],"split_indices":[2,2,3,2,1,0,3,1,2,0,0,0,0,0,0,0,0],"split_type":[0,0,0,0,0,0,0,0,0,0,0,0,0,0,0,0,0],"sum_hessian":[2.9291098E2,2.8003757E2,1.2873419E1,2.693782E2,1.0659373E1,9.418606E0,3.4548137E0,2.1043425E2,5.8943943E1,1.0890895E0,9.570283E0,1.5539076E0,1.9009061E0,1.9120427E2,1.9229979E1,6.3956003E0,5.254834E1],"tree_param":{"num_deleted":"0","num_feature":"5","num_nodes":"17","size_leaf_vector":"1"}},{"base_weights":[-3.0626236E-3,-2.6172626E-1,1.007668E-1,-7.6463275E-2,-1.1365452E0,8.1370324E-1,5.2694287E-2,2.0413265E-1,-7.9240006E-1,-7.802595E-2,1.4521486E-1,7.051322E-3,9.9873066E-1,9.26395E-3,7.449239E-1,-7.44948E-2,1.4587863E-2,-7.746582E-2,-1.1240926E-3,-4.0395293E-2,4.5777615E-2,1.463366E-2,5.7890575E-2,4.532788E-3,-4.8577216E-2,4.876041E-2,-1.3355337E-3],"categories":[],"categories_nodes":[],"categories_segments":[],"categories_sizes":[],"default_left":[0,0,0,0,0,0,0,0,0,0,0,0,0,0,0,0,0,0,0,0,0,0,0,0,0,0,0],"id":35,"left_children":[1,3,5,7,9,11,13,15,17,-1,19,-1,21,23,25,-1,-1,-1,-1,-1,-1,-1,-1,-1,-1,-1,-1],"loss_changes":[7.892279E0,1.3554443E1,7.144559E0,1.4330699E1,8.1810665E0,1.4993639E0,5.9317527E0,8.074341E0,1.1658016E1,0E0,4.0826902E0,0E0,8.03545E-1,1.5007154E1,2.096036E0,0E0,0E0,0E0,0E0,0E0,0E0,0E0,0E0,0E0,0E0,0E0,0E0],"parents":[2147483647,0,0,1,1,2,2,3,3,4,4,5,5,6,6,7,7,8,8,10,10,12,12,13,13,14,14],"right_children":[2,4,6,8,10,12,14,16,18,-1,20,-1,22,24,26,-1,-1,-1,-1,-1,-1,-1,-1,-1,-1,-1,-1],"split_conditions":[1.5196759E-1,1.3106884E-1,1.5758446E-1,6.238554E1,6.86395E-2,5.427665E-2,3.1364563E-1,3.4735077E1,7.0627365E1,-7.802595E-2,9.631936E-3,7.051322E-3,-1.8359604E-3,2.776592E-1,9.765358E-2,-7.44948E-2,1.4587863E-2,-7.746582E-2,-1.1240926E-3,-4.0395293E-2,4.5777615E-2,1.463366E-2,5.7890575E-2,4.532788E-3,-4.8577216E-2,4.876041E-2,-1.3355337E-3],"split_indices":[1,1,1,2,3,3,1,2,2,0,0,0,0,1,3,0,0,0,0,0,0,0,0,0,0,0,0],"split_type":[0,0,0,0,0,0,0,0,0,0,0,0,0,0,0,0,0,0,0,0,0,0,0,0,0,0,0],"sum_hessian":[2.9188217E2,8.316866E1,2.0871352E2,6.953123E1,1.3637429E1,1.2178244E1,1.9653528E2,5.046675E1,1.9064478E1,1.0084312E1,3.5531168E0,3.0072868E0,9.170957E0,1.858862E2,1.0649078E1,1.6949751E0,4.877178E1,9.102945E0,9.961533E0,1.5663451E0,1.9867716E0,2.2085233E0,6.962433E0,1.7248058E2,1.3405632E1,7.998275E0,2.6508029E0],"tree_param":{"num_deleted":"0","num_feature":"5","num_nodes":"27","size_leaf_vector":"1"}},{"base_weights":[-3.3390352E-3,3.219448E-2,-7.418083E-1,-7.860483E-3,6.217137E-1,-6.2491056E-2,5.868172E-1,8.6512856E-2,-3.8072172E-1,-4.6968263E-2,8.0875397E-1,1.248781E-2,3.6997203E-2,1.0219648E-3,2.6704079E-2,-1.1478601E-3,-5.8716435E-2,5.4884106E-2,2.3616975E-2],"categories":[],"categories_nodes":[],"categories_segments":[],"categories_sizes":[],"default_left":[0,0,0,0,0,0,0,0,0,0,0,0,0,0,0,0,0,0,0],"id":36,"left_children":[1,3,5,7,9,-1,11,13,15,-1,17,-1,-1,-1,-1,-1,-1,-1,-1],"loss_changes":[7.681253E0,6.601875E0,9.803856E0,9.273008E0,5.9532824E0,0E0,4.216683E-2,6.210137E0,1.5084602E1,0E0,1.0776701E0,0E0,0E0,0E0,0E0,0E0,0E0,0E0,0E0],"parents":[2147483647,0,0,1,1,2,2,3,3,4,4,6,6,7,7,8,8,10,10],"right_children":[2,4,6,8,10,-1,12,14,16,-1,18,-1,-1,-1,-1,-1,-1,-1,-1],"split_conditions":[7.3183945E1,7.0627365E1,1.2349662E-1,6.031822E1,1.0010448E-1,-6.2491056E-2,2.9593399E-3,5.811017E1,3.5276075E-3,-4.6968263E-2,1.4196175E-1,1.248781E-2,3.6997203E-2,1.0219648E-3,2.6704079E-2,-1.1478601E-3,-5.8716435E-2,5.4884106E-2,2.3616975E-2],"split_indices":[2,2,3,2,1,0,0,2,0,0,1,0,0,0,0,0,0,0,0],"split_type":[0,0,0,0,0,0,0,0,0,0,0,0,0,0,0,0,0,0,0],"sum_hessian":[2.9081598E2,2.7837747E2,1.2438508E1,2.6159036E2,1.6787127E1,9.040933E0,3.3975754E0,2.0936647E2,5.222389E1,1.3657787E0,1.5421348E1,1.8832434E0,1.5143318E0,1.8334528E2,2.6021181E1,3.6705624E1,1.5518267E1,7.0788345E0,8.342513E0],"tree_param":{"num_deleted":"0","num_feature":"5","num_nodes":"19","size_leaf_vector":"1"}},{"base_weights":[-3.22433E-3,-2.5452715E-1,9.686835E-2,-7.574924E-2,-1.1143106E0,7.944867E-1,5.053075E-2,1.9007577E-1,-7.660351E-1,-7.574433E-2,1.3898948E-1,6.9497614E-3,9.782477E-1,8.477188E-3,7.287835E-1,-7.175066E-2,1.3755432E-2,-7.4831605E-2,-1.115621E-3,-3.90968E-2,4.3863058E-2,1.4174394E-2,5.6904543E-2,4.312999E-3,-4.557229E-2,4.7869E-2,-1.1861952E-3],"categories":[],"categories_nodes":[],"categories_segments":[],"categories_sizes":[],"default_left":[0,0,0,0,0,0,0,0,0,0,0,0,0,0,0,0,0,0,0,0,0,0,0,0,0,0,0],"id":37,"left_children":[1,3,5,7,9,11,13,15,17,-1,19,-1,21,23,25,-1,-1,-1,-1,-1,-1,-1,-1,-1,-1,-1,-1],"loss_changes":[7.344378E0,1.269898E1,6.7106724E0,1.2976013E1,7.3612175E0,1.4226408E0,5.6098847E0,7.481402E0,1.0637746E1,0E0,3.6541831E0,0E0,7.813034E-1,1.3417229E1,1.9981294E0,0E0,0E0,0E0,0E0,0E0,0E0,0E0,0E0,0E0,0E0,0E0,0E0],"parents":[2147483647,0,0,1,1,2,2,3,3,4,4,5,5,6,6,7,7,8,8,10,10,12,12,13,13,14,14],"right_children":[2,4,6,8,10,12,14,16,18,-1,20,-1,22,24,26,-1,-1,-1,-1,-1,-1,-1,-1,-1,-1,-1,-1],"split_conditions":[1.5196759E-1,1.3106884E-1,1.5758446E-1,6.238554E1,6.86395E-2,5.427665E-2,3.1364563E-1,3.4735077E1,7.0627365E1,-7.574433E-2,9.631936E-3,6.9497614E-3,-1.8359604E-3,2.776592E-1,9.765358E-2,-7.175066E-2,1.3755432E-2,-7.4831605E-2,-1.115621E-3,-3.90968E-2,4.3863058E-2,1.4174394E-2,5.6904543E-2,4.312999E-3,-4.557229E-2,4.7869E-2,-1.1861952E-3],"split_indices":[1,1,1,2,3,3,1,2,2,0,0,0,0,1,3,0,0,0,0,0,0,0,0,0,0,0,0],"split_type":[0,0,0,0,0,0,0,0,0,0,0,0,0,0,0,0,0,0,0,0,0,0,0,0,0,0,0],"sum_hessian":[2.9000128E2,8.216546E1,2.0783582E2,6.8922295E1,1.3243161E1,1.1939505E1,1.9589632E2,5.028318E1,1.8639114E1,9.877444E0,3.365717E0,2.9988258E0,8.940679E0,1.854127E2,1.0483606E1,1.7108389E0,4.8572342E1,8.891845E0,9.74727E0,1.4712834E0,1.8944335E0,2.1910024E0,6.749676E0,1.7179321E2,1.3619502E1,7.832115E0,2.6514914E0],"tree_param":{"num_deleted":"0","num_feature":"5","num_nodes":"27","size_leaf_vector":"1"}},{"base_weights":[-3.4806242E-3,1.6756889E-1,-1.4648402E-1,-3.8877928E-1,2.9887936E-1,-1.0153888E0,-2.322684E-2,2.6442206E-1,-1.3997396E0,4.17464E-1,-1.7904983E-1,-1.4631848E0,6.281735E-1,9.4151235E-1,-1.3083246E-1,3.6467344E-2,-9.175443E-2,-1.112841E-1,1.9187404E-2,2.4864556E-2,-1.3790602E-2,-9.87411E-2,2.2327451E-2,-9.431225E-2,4.6099233E-3,4.171331E-2,1.21917715E-2,5.912898E-2,3.9321794E-3,-1.0665845E-1,-3.6405604E-3],"categories":[],"categories_nodes":[],"categories_segments":[],"categories_sizes":[],"default_left":[0,0,0,0,0,0,0,0,0,0,0,0,0,0,0,0,0,0,0,0,0,0,0,0,0,0,0,0,0,0,0],"id":38,"left_children":[1,3,5,7,9,11,13,15,17,19,21,23,25,27,29,-1,-1,-1,-1,-1,-1,-1,-1,-1,-1,-1,-1,-1,-1,-1,-1],"loss_changes":[7.115899E0,9.794126E0,1.6944372E1,1.7362041E1,6.1811686E0,1.5387653E1,1.4633306E1,1.741754E1,1.596575E1,4.931203E0,2.5731083E1,1.0537674E1,1.8540919E-1,2.8498669E0,1.455587E1,0E0,0E0,0E0,0E0,0E0,0E0,0E0,0E0,0E0,0E0,0E0,0E0,0E0,0E0,0E0,0E0],"parents":[2147483647,0,0,1,1,2,2,3,3,4,4,5,5,6,6,7,7,8,8,9,9,10,10,11,11,12,12,13,13,14,14],"right_children":[2,4,6,8,10,12,14,16,18,20,22,24,26,28,30,-1,-1,-1,-1,-1,-1,-1,-1,-1,-1,-1,-1,-1,-1,-1,-1],"split_conditions":[4.8815945E1,-1.1545006E-2,5.447518E1,6.713528E-2,1.226567E-1,8.992815E-2,5.5197643E1,3.9667404E1,1.4569439E-1,1.4865897E-2,1.3979977E-1,1.5538282E-2,-2.938853E-2,9.569739E-3,5.5914436E1,3.6467344E-2,-9.175443E-2,-1.112841E-1,1.9187404E-2,2.4864556E-2,-1.3790602E-2,-9.87411E-2,2.2327451E-2,-9.431225E-2,4.6099233E-3,4.171331E-2,1.21917715E-2,5.912898E-2,3.9321794E-3,-1.0665845E-1,-3.6405604E-3],"split_indices":[2,0,2,3,3,3,2,2,3,0,3,0,0,0,2,0,0,0,0,0,0,0,0,0,0,0,0,0,0,0,0],"split_type":[0,0,0,0,0,0,0,0,0,0,0,0,0,0,0,0,0,0,0,0,0,0,0,0,0,0,0,0,0,0,0],"sum_hessian":[2.889085E2,1.3147572E2,1.5743279E2,2.4731268E1,1.06744446E2,1.8658836E1,1.3877394E2,1.5472576E1,9.258691E0,8.5625435E1,2.1119017E1,1.4749907E1,3.9089305E0,1.3147777E1,1.2562617E2,1.3201737E1,2.2708395E0,6.15865E0,3.1000412E0,7.703764E1,8.58779E0,4.8992114E0,1.6219805E1,1.1428629E1,3.3212776E0,1.7824659E0,2.1264646E0,9.987079E0,3.1606984E0,2.5305514E0,1.2309561E2],"tree_param":{"num_deleted":"0","num_feature":"5","num_nodes":"31","size_leaf_vector":"1"}},{"base_weights":[-4.1829394E-3,2.9498527E-2,-7.2058046E-1,-1.1696861E-3,7.6500547E-1,-6.1460752E-2,5.747142E-1,1.5888551E-1,-1.5597387E-1,-3.8984608E-2,1.0085068E0,3.677422E-2,1.1586073E-2,-1.8797187E-2,1.4278488E-2,-4.8678126E-2,-9.4600423E-4,5.4156214E-2,2.0064574E-2],"categories":[],"categories_nodes":[],"categories_segments":[],"categories_sizes":[],"default_left":[0,0,0,0,0,0,0,0,0,0,0,0,0,0,0,0,0,0,0],"id":39,"left_children":[1,3,5,7,9,-1,11,13,15,-1,17,-1,-1,-1,-1,-1,-1,-1,-1],"loss_changes":[6.990008E0,6.244597E0,9.276497E0,6.633343E0,4.9543633E0,0E0,6.939638E-2,9.025939E0,1.5230775E1,0E0,1.8816948E-2,0E0,0E0,0E0,0E0,0E0,0E0,0E0,0E0],"parents":[2147483647,0,0,1,1,2,2,3,3,4,4,6,6,7,7,8,8,10,10],"right_children":[2,4,6,8,10,-1,12,14,16,-1,18,-1,-1,-1,-1,-1,-1,-1,-1],"split_conditions":[7.3183945E1,7.16284E1,1.2349662E-1,4.8815945E1,1.1990361E-1,-6.1460752E-2,1.3348001E-1,-1.1545006E-2,5.447518E1,-3.8984608E-2,1.1301542E-2,3.677422E-2,1.1586073E-2,-1.8797187E-2,1.4278488E-2,-4.8678126E-2,-9.4600423E-4,5.4156214E-2,2.0064574E-2],"split_indices":[2,2,3,2,1,0,3,0,2,0,0,0,0,0,0,0,0,0,0],"split_type":[0,0,0,0,0,0,0,0,0,0,0,0,0,0,0,0,0,0,0],"sum_hessian":[2.8780847E2,2.758005E2,1.2007953E1,2.657193E2,1.0081209E1,8.65883E0,3.3491228E0,1.3063095E2,1.3508836E2,1.072921E0,9.008288E0,1.5011685E0,1.8479543E0,2.4639896E1,1.0599105E2,1.8517784E1,1.1657057E2,7.3244658E0,1.683822E0],"tree_param":{"num_deleted":"0","num_feature":"5","num_nodes":"19","size_leaf_vector":"1"}},{"base_weights":[-4.0750555E-3,-2.4288839E-1,9.029042E-2,3.602079E-1,-4.8027247E-1,7.65427E-1,4.65013E-2,9.326125E-1,-1.6576628E-1,-1.130374E0,-1.9270417E-1,5.763606E-3,9.5318455E-1,5.3801883E-2,2.0116191E-2,1.49197895E-2,5.4689825E-2,-6.911077E-2,1.705048E-2,2.6655799E-2,-7.183985E-2,5.2307127E-3,-5.1187813E-2,1.3680549E-2,5.568592E-2,-9.21901E-3,9.026433E-3],"categories":[],"categories_nodes":[],"categories_segments":[],"categories_sizes":[],"default_left":[0,0,0,0,0,0,0,0,0,0,0,0,0,0,0,0,0,0,0,0,0,0,0,0,0,0,0],"id":40,"left_children":[1,3,5,7,9,11,13,15,17,19,21,-1,23,-1,25,-1,-1,-1,-1,-1,-1,-1,-1,-1,-1,-1,-1],"loss_changes":[6.5063996E0,1.1879268E1,6.0833178E0,7.2796288E0,1.0831153E1,1.4211364E0,5.2871614E0,8.475294E-1,8.597694E0,9.900387E0,1.0529648E1,0E0,7.4192715E-1,0E0,6.3174376E0,0E0,0E0,0E0,0E0,0E0,0E0,0E0,0E0,0E0,0E0,0E0,0E0],"parents":[2147483647,0,0,1,1,2,2,3,3,4,4,5,5,6,6,7,7,8,8,9,9,10,10,12,12,14,14],"right_children":[2,4,6,8,10,12,14,16,18,20,22,-1,24,-1,26,-1,-1,-1,-1,-1,-1,-1,-1,-1,-1,-1,-1],"split_conditions":[1.5196759E-1,3.0823478E-2,1.5758446E-1,1.004426E-1,4.061017E-2,5.427665E-2,4.100222E-2,2.886378E-2,1.0584817E-1,-1.938899E-2,1.3031559E-1,5.763606E-3,-1.8359604E-3,5.3801883E-2,8.3076164E-2,1.49197895E-2,5.4689825E-2,-6.911077E-2,1.705048E-2,2.6655799E-2,-7.183985E-2,5.2307127E-3,-5.1187813E-2,1.3680549E-2,5.568592E-2,-9.21901E-3,9.026433E-3],"split_indices":[1,3,1,1,3,3,3,3,1,0,1,0,0,0,3,0,0,0,0,0,0,0,0,0,0,0,0],"split_type":[0,0,0,0,0,0,0,0,0,0,0,0,0,0,0,0,0,0,0,0,0,0,0,0,0,0,0],"sum_hessian":[2.8674167E2,8.076741E1,2.0597424E2,2.2665697E1,5.810171E1,1.1541933E1,1.9443231E2,1.0483572E1,1.2182125E1,1.6920036E1,4.1181675E1,2.9479394E0,8.593994E0,3.8643646E0,1.9056795E2,2.7022398E0,7.7813325E0,3.0745654E0,9.10756E0,2.5168602E0,1.4403175E1,3.0974361E1,1.02073145E1,2.1589763E0,6.4350176E0,8.370723E1,1.06860725E2],"tree_param":{"num_deleted":"0","num_feature":"5","num_nodes":"27","size_leaf_vector":"1"}},{"base_weights":[-3.6901478E-3,2.838643E-2,-7.0466447E-1,-1.5237024E-3,7.5795275E-1,-6.0586162E-2,5.5852956E-1,7.8348845E-2,-2.8071955E-1,-3.7841454E-2,9.975445E-1,1.0967056E-2,3.606529E-2,6.858872E-4,2.5749309E-2,-8.031862E-2,-4.623583E-3,5.3640217E-2,1.9776512E-2],"categories":[],"categories_nodes":[],"categories_segments":[],"categories_sizes":[],"default_left":[0,0,0,0,0,0,0,0,0,0,0,0,0,0,0,0,0,0,0],"id":41,"left_children":[1,3,5,7,9,-1,11,13,15,-1,17,-1,-1,-1,-1,-1,-1,-1,-1],"loss_changes":[6.4610634E0,5.999614E0,8.730364E0,5.932869E0,4.6847043E0,0E0,7.842553E-2,5.8311996E0,1.4619736E1,0E0,1.8803596E-2,0E0,0E0,0E0,0E0,0E0,0E0,0E0,0E0],"parents":[2147483647,0,0,1,1,2,2,3,3,4,4,6,6,7,7,8,8,10,10],"right_children":[2,4,6,8,10,-1,12,14,16,-1,18,-1,-1,-1,-1,-1,-1,-1,-1],"split_conditions":[7.3183945E1,7.16284E1,1.2349662E-1,6.031822E1,1.1990361E-1,-6.0586162E-2,2.9593399E-3,5.811017E1,6.170784E1,-3.7841454E-2,1.1301542E-2,1.0967056E-2,3.606529E-2,6.858872E-4,2.5749309E-2,-8.031862E-2,-4.623583E-3,5.3640217E-2,1.9776512E-2],"split_indices":[2,2,3,2,1,0,0,2,2,0,0,0,0,0,0,0,0,0,0],"split_type":[0,0,0,0,0,0,0,0,0,0,0,0,0,0,0,0,0,0,0],"sum_hessian":[2.8546213E2,2.738885E2,1.157363E1,2.6406067E2,9.827822E0,8.287637E0,3.2859933E0,2.0588136E2,5.817931E1,1.0473415E0,8.78048E0,1.8268195E0,1.4591739E0,1.8023445E2,2.5646908E1,6.297644E0,5.1881668E1,7.109654E0,1.6708263E0],"tree_param":{"num_deleted":"0","num_feature":"5","num_nodes":"19","size_leaf_vector":"1"}},{"base_weights":[-3.6484194E-3,2.6965594E-2,-6.8889445E-1,7.238303E-2,-4.4145417E-1,-5.9728384E-2,5.473987E-1,1.1480597E-2,5.41403E-1,-1.01336494E-1,-1.09891966E-1,3.586985E-2,1.0128361E-2,3.92613E-3,-2.3776889E-2,-1.8449025E-2,3.6074564E-2,-3.31155E-2,1.7769344E-2],"categories":[],"categories_nodes":[],"categories_segments":[],"categories_sizes":[],"default_left":[0,0,0,0,0,0,0,0,0,0,0,0,0,0,0,0,0,0,0],"id":42,"left_children":[1,3,5,7,9,-1,11,13,15,-1,17,-1,-1,-1,-1,-1,-1,-1,-1],"loss_changes":[6.0089364E0,5.867597E0,8.311764E0,7.161092E0,1.2595085E1,0E0,1.0332644E-1,7.321758E0,4.9904995E0,0E0,5.6908946E0,0E0,0E0,0E0,0E0,0E0,0E0,0E0,0E0],"parents":[2147483647,0,0,1,1,2,2,3,3,4,4,6,6,7,7,8,8,10,10],"right_children":[2,4,6,8,10,-1,12,14,16,-1,18,-1,-1,-1,-1,-1,-1,-1,-1],"split_conditions":[7.3183945E1,1.4865897E-2,1.2349662E-1,1.0930349E-2,1.6787248E-2,-5.9728384E-2,1.3348001E-1,5.521493E-3,5.2569956E-2,-1.01336494E-1,1.05419636E-1,3.586985E-2,1.0128361E-2,3.92613E-3,-2.3776889E-2,-1.8449025E-2,3.6074564E-2,-3.31155E-2,1.7769344E-2],"split_indices":[2,0,3,0,0,0,3,0,3,0,3,0,0,0,0,0,0,0,0],"split_type":[0,0,0,0,0,0,0,0,0,0,0,0,0,0,0,0,0,0,0],"sum_hessian":[2.845526E2,2.7330316E2,1.124943E1,2.4991699E2,2.3386187E1,8.007799E0,3.24163E0,2.221015E2,2.7815493E1,3.160835E0,2.0225353E1,1.4475667E0,1.7940633E0,1.959642E2,2.6137283E1,4.420427E0,2.3395065E1,9.0531845E0,1.1172168E1],"tree_param":{"num_deleted":"0","num_feature":"5","num_nodes":"19","size_leaf_vector":"1"}},{"base_weights":[-3.920913E-3,-3.269976E-2,7.037509E-1,1.4569586E-2,-8.6632293E-1,9.3275994E-1,-2.2384527E-3,-1.4476585E-1,1.8467511E-1,-1.1935015E0,3.384106E-2,1.9637369E-2,5.3960867E-2,3.4490451E-3,-2.8051784E-2,1.3238641E-2,-2.5604134E-2,-1.2287132E-1,-8.296724E-3],"categories":[],"categories_nodes":[],"categories_segments":[],"categories_sizes":[],"default_left":[0,0,0,0,0,0,0,0,0,0,0,0,0,0,0,0,0,0,0],"id":43,"left_children":[1,3,5,7,9,11,-1,13,15,17,-1,-1,-1,-1,-1,-1,-1,-1,-1],"loss_changes":[5.821848E0,1.0831626E1,1.9566798E0,7.0957065E0,8.254646E0,2.562871E-1,0E0,1.2070893E1,7.1999397E0,1.5867537E1,0E0,0E0,0E0,0E0,0E0,0E0,0E0,0E0,0E0],"parents":[2147483647,0,0,1,1,2,2,3,3,4,4,5,5,7,7,8,8,9,9],"right_children":[2,4,6,8,10,12,-1,14,16,18,-1,-1,-1,-1,-1,-1,-1,-1,-1],"split_conditions":[3.1364563E-1,2.776592E-1,9.765358E-2,1.7549154E-1,6.246981E1,8.8225044E-2,-2.2384527E-3,5.9459812E1,1.4865897E-2,1.3979977E-1,3.384106E-2,1.9637369E-2,5.3960867E-2,3.4490451E-3,-2.8051784E-2,1.3238641E-2,-2.5604134E-2,-1.2287132E-1,-8.296724E-3],"split_indices":[1,1,3,1,2,3,0,2,0,3,0,0,0,0,0,0,0,0,0],"split_type":[0,0,0,0,0,0,0,0,0,0,0,0,0,0,0,0,0,0,0],"sum_hessian":[2.8373148E2,2.735604E2,1.0171072E1,2.5981073E2,1.3749654E1,7.5997853E0,2.5712867E0,1.3422916E2,1.2558159E2,1.1531347E1,2.2183065E0,2.4068778E0,5.1929073E0,8.924024E1,4.4988907E1,1.1318957E2,1.2392026E1,4.5469823E0,6.984365E0],"tree_param":{"num_deleted":"0","num_feature":"5","num_nodes":"19","size_leaf_vector":"1"}},{"base_weights":[-3.8854852E-3,2.505009E-2,-6.729778E-1,-1.1645389E-2,5.83422E-1,-5.88147E-2,5.295921E-1,3.1779822E-2,-6.398279E-1,-4.4300552E-2,7.6465565E-1,9.413486E-3,3.5130154E-2,-1.9220827E-4,3.8725413E-2,-7.4530326E-2,3.000086E-3,5.3596463E-2,2.0040203E-2],"categories":[],"categories_nodes":[],"categories_segments":[],"categories_sizes":[],"default_left":[0,0,0,0,0,0,0,0,0,0,0,0,0,0,0,0,0,0,0],"id":44,"left_children":[1,3,5,7,9,-1,11,13,15,-1,17,-1,-1,-1,-1,-1,-1,-1,-1],"loss_changes":[5.514993E0,5.60414E0,7.770054E0,7.039557E0,5.168928E0,0E0,1.1417568E-1,6.3961983E0,1.002357E1,0E0,1.3089361E0,0E0,0E0,0E0,0E0,0E0,0E0,0E0,0E0],"parents":[2147483647,0,0,1,1,2,2,3,3,4,4,6,6,7,7,8,8,10,10],"right_children":[2,4,6,8,10,-1,12,14,16,-1,18,-1,-1,-1,-1,-1,-1,-1,-1],"split_conditions":[7.3183945E1,7.0627365E1,1.2349662E-1,6.6337364E1,1.0010448E-1,-5.88147E-2,2.9593399E-3,6.485466E1,1.6766518E-1,-4.4300552E-2,1.4196175E-1,9.413486E-3,3.5130154E-2,-1.9220827E-4,3.8725413E-2,-7.4530326E-2,3.000086E-3,5.3596463E-2,2.0040203E-2],"split_indices":[2,2,3,2,1,0,0,2,1,0,1,0,0,0,0,0,0,0,0],"split_type":[0,0,0,0,0,0,0,0,0,0,0,0,0,0,0,0,0,0,0],"sum_hessian":[2.829862E2,2.7217813E2,1.0808059E1,2.5631274E2,1.5865397E1,7.6345787E0,3.1734798E0,2.4062794E2,1.5684798E1,1.3149631E0,1.4550434E1,1.7699172E0,1.4035625E0,2.3056407E2,1.0063877E1,6.5689774E0,9.115821E0,6.8334813E0,7.716953E0],"tree_param":{"num_deleted":"0","num_feature":"5","num_nodes":"19","size_leaf_vector":"1"}},{"base_weights":[-3.7819194E-3,-3.1248923E-2,6.8122107E-1,1.4492769E-2,-8.284861E-1,9.085373E-1,-2.1493442E-3,-1.3603029E-1,1.7540763E-1,-1.1286831E0,3.218752E-2,1.8105432E-2,5.3067725E-2,2.47548E-2,-1.3180538E-2,-6.58358E-2,1.0432791E-2,-1.146937E-1,-7.909621E-3],"categories":[],"categories_nodes":[],"categories_segments":[],"categories_sizes":[],"default_left":[0,0,0,0,0,0,0,0,0,0,0,0,0,0,0,0,0,0,0],"id":45,"left_children":[1,3,5,7,9,11,-1,13,15,17,-1,-1,-1,-1,-1,-1,-1,-1,-1],"loss_changes":[5.3503923E0,9.97749E0,1.8438592E0,6.3075833E0,7.2877607E0,3.162098E-1,0E0,1.09688835E1,6.516864E0,1.3992033E1,0E0,0E0,0E0,0E0,0E0,0E0,0E0,0E0,0E0],"parents":[2147483647,0,0,1,1,2,2,3,3,4,4,5,5,7,7,8,8,9,9],"right_children":[2,4,6,8,10,12,-1,14,16,18,-1,-1,-1,-1,-1,-1,-1,-1,-1],"split_conditions":[3.1364563E-1,2.776592E-1,9.765358E-2,1.7549154E-1,6.246981E1,8.8225044E-2,-2.1493442E-3,3.5810963E1,-2.782255E-2,1.3979977E-1,3.218752E-2,1.8105432E-2,5.3067725E-2,2.47548E-2,-1.3180538E-2,-6.58358E-2,1.0432791E-2,-1.146937E-1,-7.909621E-3],"split_indices":[1,1,3,1,2,3,0,2,0,3,0,0,0,0,0,0,0,0,0],"split_type":[0,0,0,0,0,0,0,0,0,0,0,0,0,0,0,0,0,0,0],"sum_hessian":[2.8223737E2,2.722742E2,9.963171E0,2.584286E2,1.3845588E1,7.38928E0,2.5738916E0,1.3360571E2,1.2482288E2,1.1694392E1,2.1511953E0,2.3512974E0,5.0379825E0,2.1982096E1,1.1162363E2,1.8793237E0,1.2294356E2,4.6944804E0,6.999912E0],"tree_param":{"num_deleted":"0","num_feature":"5","num_nodes":"19","size_leaf_vector":"1"}},{"base_weights":[-3.7664904E-3,2.3877483E-2,-6.6022295E-1,-3.9612683E-3,7.316398E-1,-5.8009524E-2,5.136282E-1,1.3971797E-1,-1.4260286E-1,-3.6167458E-2,9.6874225E-1,3.478973E-2,8.317905E-3,-1.903115E-2,1.3232973E-2,-4.5347806E-2,-6.7630183E-4,5.227211E-2,1.8847717E-2],"categories":[],"categories_nodes":[],"categories_segments":[],"categories_sizes":[],"default_left":[0,0,0,0,0,0,0,0,0,0,0,0,0,0,0,0,0,0,0],"id":46,"left_children":[1,3,5,7,9,-1,11,13,15,-1,17,-1,-1,-1,-1,-1,-1,-1,-1],"loss_changes":[5.1410174E0,5.361802E0,7.3143787E0,5.2525415E0,4.253525E0,0E0,1.444118E-1,8.519996E0,1.3225955E1,0E0,2.7269363E-2,0E0,0E0,0E0,0E0,0E0,0E0,0E0,0E0],"parents":[2147483647,0,0,1,1,2,2,3,3,4,4,6,6,7,7,8,8,10,10],"right_children":[2,4,6,8,10,-1,12,14,16,-1,18,-1,-1,-1,-1,-1,-1,-1,-1],"split_conditions":[7.3183945E1,7.16284E1,1.2349662E-1,4.8815945E1,1.1990361E-1,-5.8009524E-2,1.3348001E-1,-1.1545006E-2,5.447518E1,-3.6167458E-2,1.1301542E-2,3.478973E-2,8.317905E-3,-1.903115E-2,1.3232973E-2,-4.5347806E-2,-6.7630183E-4,5.227211E-2,1.8847717E-2],"split_indices":[2,2,3,2,1,0,3,0,2,0,0,0,0,0,0,0,0,0,0],"split_type":[0,0,0,0,0,0,0,0,0,0,0,0,0,0,0,0,0,0,0],"sum_hessian":[2.8142877E2,2.7098114E2,1.0447633E1,2.6168265E2,9.298485E0,7.3350997E0,3.1125333E0,1.285028E2,1.3317982E2,1.0155755E0,8.282909E0,1.383292E0,1.7292414E0,2.448486E1,1.0401795E2,1.8370266E1,1.1480956E2,6.6539288E0,1.6289803E0],"tree_param":{"num_deleted":"0","num_feature":"5","num_nodes":"19","size_leaf_vector":"1"}},{"base_weights":[-3.680778E-3,-3.0437572E-2,6.680787E-1,2.8202346E-2,-6.176449E-1,8.952831E-1,-2.3208426E-3,-1.2689522E-1,2.0885758E-1,-1.5532025E0,-2.6885927E-1,1.7596595E-2,5.2481778E-2,3.5712912E-3,-2.5949335E-2,1.4359328E-2,-2.1561474E-2,-1.06565885E-1,3.0737076E-2,3.467563E-2,-2.856986E-2],"categories":[],"categories_nodes":[],"categories_segments":[],"categories_sizes":[],"default_left":[0,0,0,0,0,0,0,0,0,0,0,0,0,0,0,0,0,0,0,0,0],"id":47,"left_children":[1,3,5,7,9,11,-1,13,15,17,19,-1,-1,-1,-1,-1,-1,-1,-1,-1,-1],"loss_changes":[5.0790844E0,9.370386E0,1.7987552E0,6.97291E0,7.644086E0,3.2352304E-1,0E0,1.0458141E1,5.8846407E0,9.456686E0,5.9881E0,0E0,0E0,0E0,0E0,0E0,0E0,0E0,0E0,0E0,0E0],"parents":[2147483647,0,0,1,1,2,2,3,3,4,4,5,5,7,7,8,8,9,9,10,10],"right_children":[2,4,6,8,10,12,-1,14,16,18,20,-1,-1,-1,-1,-1,-1,-1,-1,-1,-1],"split_conditions":[3.1364563E-1,2.6832277E-1,9.765358E-2,1.7549154E-1,9.360677E-2,8.8225044E-2,-2.3208426E-3,5.9459812E1,1.4865897E-2,7.16284E1,9.750502E-2,1.7596595E-2,5.2481778E-2,3.5712912E-3,-2.5949335E-2,1.4359328E-2,-2.1561474E-2,-1.06565885E-1,3.0737076E-2,3.467563E-2,-2.856986E-2],"split_indices":[1,1,3,1,3,3,0,2,0,2,3,0,0,0,0,0,0,0,0,0,0],"split_type":[0,0,0,0,0,0,0,0,0,0,0,0,0,0,0,0,0,0,0,0,0],"sum_hessian":[2.8044617E2,2.7062177E2,9.824422E0,2.469161E2,2.3705654E1,7.262099E0,2.5623233E0,1.3301585E2,1.13900246E2,5.4999127E0,1.8205742E1,2.332232E0,4.929867E0,8.887862E1,4.4137238E1,1.0197291E2,1.192734E1,4.3553796E0,1.1445334E0,4.0453105E0,1.4160431E1],"tree_param":{"num_deleted":"0","num_feature":"5","num_nodes":"21","size_leaf_vector":"1"}},{"base_weights":[-3.556144E-3,2.2699475E-2,-6.465928E-1,-1.2464555E-2,5.68993E-1,-5.71849E-2,4.9590245E-1,2.8154358E-2,-6.0122114E-1,-4.2259555E-2,7.4388105E-1,7.602221E-3,3.40739E-2,-2.9086875E-4,3.72435E-2,-7.118427E-2,3.0140236E-3,5.3062838E-2,1.8053789E-2],"categories":[],"categories_nodes":[],"categories_segments":[],"categories_sizes":[],"default_left":[0,0,0,0,0,0,0,0,0,0,0,0,0,0,0,0,0,0,0],"id":48,"left_children":[1,3,5,7,9,-1,11,13,15,-1,17,-1,-1,-1,-1,-1,-1,-1,-1],"loss_changes":[4.7534E0,5.2058663E0,6.839769E0,6.120956E0,4.68186E0,0E0,1.5457273E-1,5.841164E0,9.072447E0,0E0,1.4533272E0,0E0,0E0,0E0,0E0,0E0,0E0,0E0,0E0],"parents":[2147483647,0,0,1,1,2,2,3,3,4,4,6,6,7,7,8,8,10,10],"right_children":[2,4,6,8,10,-1,12,14,16,-1,18,-1,-1,-1,-1,-1,-1,-1,-1],"split_conditions":[7.3183945E1,7.0627365E1,1.2349662E-1,6.6337364E1,1.0010448E-1,-5.71849E-2,2.9593399E-3,6.485466E1,1.6766518E-1,-4.2259555E-2,1.4196175E-1,7.602221E-3,3.40739E-2,-2.9086875E-4,3.72435E-2,-7.118427E-2,3.0140236E-3,5.3062838E-2,1.8053789E-2],"split_indices":[2,2,3,2,1,0,0,2,1,0,1,0,0,0,0,0,0,0,0],"split_type":[0,0,0,0,0,0,0,0,0,0,0,0,0,0,0,0,0,0,0],"sum_hessian":[2.7967468E2,2.696302E2,1.0044483E1,2.5424222E2,1.5387978E1,6.998395E0,3.0460875E0,2.3872455E2,1.5517669E1,1.27173E0,1.4116248E1,1.7054064E0,1.3406812E0,2.2886827E2,9.856284E0,6.4036374E0,9.114032E0,6.7487154E0,7.3675327E0],"tree_param":{"num_deleted":"0","num_feature":"5","num_nodes":"19","size_leaf_vector":"1"}},{"base_weights":[-3.4684525E-3,-2.901263E-2,6.468744E-1,1.6935207E-2,-7.291886E-1,8.7247455E-1,-2.2251112E-3,1.1583241E-1,-2.4292476E-1,-1.1304061E0,3.7496556E-2,1.6163087E-2,5.165371E-2,-1.0184626E-2,1.1870076E-2,-7.1667306E-2,-6.109269E-3,-1.098088E-1,-9.6962275E-3],"categories":[],"categories_nodes":[],"categories_segments":[],"categories_sizes":[],"default_left":[0,0,0,0,0,0,0,0,0,0,0,0,0,0,0,0,0,0,0],"id":49,"left_children":[1,3,5,7,9,11,-1,13,15,17,-1,-1,-1,-1,-1,-1,-1,-1,-1],"loss_changes":[4.669526E0,8.709366E0,1.6958165E0,6.5728064E0,1.0740707E1,3.7681866E-1,0E0,7.2399044E0,9.961416E0,1.3060196E1,0E0,0E0,0E0,0E0,0E0,0E0,0E0,0E0,0E0],"parents":[2147483647,0,0,1,1,2,2,3,3,4,4,5,5,7,7,8,8,9,9],"right_children":[2,4,6,8,10,12,-1,14,16,18,-1,-1,-1,-1,-1,-1,-1,-1,-1],"split_conditions":[3.1364563E-1,2.7379644E-1,9.765358E-2,6.031822E1,6.246981E1,8.8225044E-2,-2.2251112E-3,5.2574605E-2,6.170784E1,1.3979977E-1,3.7496556E-2,1.6163087E-2,5.165371E-2,-1.0184626E-2,1.1870076E-2,-7.1667306E-2,-6.109269E-3,-1.098088E-1,-9.6962275E-3],"split_indices":[1,1,3,2,2,3,0,3,2,3,0,0,0,0,0,0,0,0,0],"split_type":[0,0,0,0,0,0,0,0,0,0,0,0,0,0,0,0,0,0,0],"sum_hessian":[2.789558E2,2.6933237E2,9.623452E0,2.5366205E2,1.567032E1,7.0583377E0,2.5651143E0,1.8413747E2,6.9524574E1,1.2512113E1,3.1582065E0,2.2786686E0,4.7796693E0,5.0563606E1,1.3357387E2,5.4011292E0,6.412344E1,5.2229548E0,7.2891583E0],"tree_param":{"num_deleted":"0","num_feature":"5","num_nodes":"19","size_leaf_vector":"1"}},{"base_weights":[-3.5917116E-3,1.3855234E-2,-4.538622E-2,5.28449E-2,-3.8564542E-1,-8.123714E-3,4.8875594E-1,-9.3574345E-2,-7.3135115E-2,7.0254126E-4,-7.6213695E-2,-2.0907078E-2,3.3625912E-2,-2.9895589E-2,1.8343357E-2],"categories":[],"categories_nodes":[],"categories_segments":[],"categories_sizes":[],"default_left":[0,0,0,0,0,0,0,0,0,0,0,0,0,0,0],"id":50,"left_children":[1,3,-1,5,7,9,11,-1,13,-1,-1,-1,-1,-1,-1],"loss_changes":[4.415407E0,4.3009934E0,0E0,6.6816196E0,1.1265678E1,7.465249E0,5.421874E0,0E0,5.144462E0,0E0,0E0,0E0,0E0,0E0,0E0],"parents":[2147483647,0,0,1,1,3,3,4,4,5,5,6,6,8,8],"right_children":[2,4,-1,6,8,10,12,-1,14,-1,-1,-1,-1,-1,-1],"split_conditions":[7.518101E1,1.4865897E-2,-4.538622E-2,1.0618135E-2,1.6787248E-2,9.707615E-3,5.2569956E-2,-9.3574345E-2,1.05419636E-1,7.0254126E-4,-7.6213695E-2,-2.0907078E-2,3.3625912E-2,-2.9895589E-2,1.8343357E-2],"split_indices":[2,0,0,0,0,0,3,0,3,0,0,0,0,0,0],"split_type":[0,0,0,0,0,0,0,0,0,0,0,0,0,0,0],"sum_hessian":[2.7811322E2,2.7381415E2,4.2990847E0,2.502577E2,2.355643E1,2.204113E2,2.9846418E1,3.226649E0,2.032978E1,2.1821057E2,2.2007184E0,4.813845E0,2.5032574E1,9.108035E0,1.1221746E1],"tree_param":{"num_deleted":"0","num_feature":"5","num_nodes":"15","size_leaf_vector":"1"}},{"base_weights":[-4.1638454E-3,-2.8852558E-2,6.3167995E-1,2.6097927E-2,-5.7203066E-1,8.594384E-1,-2.8493672E-3,-1.1548315E-1,1.9163881E-1,-1.4426289E0,-2.4641424E-1,1.6426487E-2,5.0843418E-2,2.3480084E-2,-1.16370795E-2,1.3330484E-2,-2.0604534E-2,-9.748327E-2,2.9477779E-2,3.3201974E-2,-2.607343E-2],"categories":[],"categories_nodes":[],"categories_segments":[],"categories_sizes":[],"default_left":[0,0,0,0,0,0,0,0,0,0,0,0,0,0,0,0,0,0,0,0,0],"id":51,"left_children":[1,3,5,7,9,11,-1,13,15,17,19,-1,-1,-1,-1,-1,-1,-1,-1,-1,-1],"loss_changes":[4.390303E0,8.045665E0,1.6886067E0,5.771185E0,6.664056E0,3.2769632E-1,0E0,9.222856E0,5.2450624E0,7.882369E0,5.161331E0,0E0,0E0,0E0,0E0,0E0,0E0,0E0,0E0,0E0,0E0],"parents":[2147483647,0,0,1,1,2,2,3,3,4,4,5,5,7,7,8,8,9,9,10,10],"right_children":[2,4,6,8,10,12,-1,14,16,18,20,-1,-1,-1,-1,-1,-1,-1,-1,-1,-1],"split_conditions":[3.1364563E-1,2.6832277E-1,9.765358E-2,1.7549154E-1,9.360677E-2,8.8225044E-2,-2.8493672E-3,3.5810963E1,1.4865897E-2,7.16284E1,9.750502E-2,1.6426487E-2,5.0843418E-2,2.3480084E-2,-1.16370795E-2,1.3330484E-2,-2.0604534E-2,-9.748327E-2,2.9477779E-2,3.3201974E-2,-2.607343E-2],"split_indices":[1,1,3,1,3,3,0,2,0,2,3,0,0,0,0,0,0,0,0,0,0],"split_type":[0,0,0,0,0,0,0,0,0,0,0,0,0,0,0,0,0,0,0,0,0],"sum_hessian":[2.7750885E2,2.6805536E2,9.453501E0,2.4429343E2,2.3761932E1,6.9176865E0,2.5358145E0,1.3183885E2,1.1245457E2,5.5343432E0,1.822759E1,2.2881331E0,4.629553E0,2.1509247E1,1.10329605E2,1.0052928E2,1.1925287E1,4.461733E0,1.0726105E0,3.900937E0,1.4326653E1],"tree_param":{"num_deleted":"0","num_feature":"5","num_nodes":"21","size_leaf_vector":"1"}},{"base_weights":[-3.8721352E-3,2.0503584E-2,-6.236736E-1,-1.3409475E-2,5.5271536E-1,-5.6344993E-2,4.8493874E-1,2.5243497E-2,-5.7475424E-1,-4.1094523E-2,7.2339904E-1,3.379364E-2,6.8316334E-3,-3.5684972E-4,3.57617E-2,-6.85482E-2,2.7520766E-3,5.185358E-2,1.7144406E-2],"categories":[],"categories_nodes":[],"categories_segments":[],"categories_sizes":[],"default_left":[0,0,0,0,0,0,0,0,0,0,0,0,0,0,0,0,0,0,0],"id":52,"left_children":[1,3,5,7,9,-1,11,13,15,-1,17,-1,-1,-1,-1,-1,-1,-1,-1],"loss_changes":[4.2089124E0,4.8481073E0,6.4274163E0,5.5063686E0,4.369588E0,0E0,1.7302072E-1,5.3172116E0,8.273058E0,0E0,1.4161758E0,0E0,0E0,0E0,0E0,0E0,0E0,0E0,0E0],"parents":[2147483647,0,0,1,1,2,2,3,3,4,4,6,6,7,7,8,8,10,10],"right_children":[2,4,6,8,10,-1,12,14,16,-1,18,-1,-1,-1,-1,-1,-1,-1,-1],"split_conditions":[7.3183945E1,7.0627365E1,1.2349662E-1,6.6337364E1,1.0010448E-1,-5.6344993E-2,1.3348001E-1,6.485466E1,1.6766518E-1,-4.1094523E-2,1.4196175E-1,3.379364E-2,6.8316334E-3,-3.5684972E-4,3.57617E-2,-6.85482E-2,2.7520766E-3,5.185358E-2,1.7144406E-2],"split_indices":[2,2,3,2,1,0,3,2,1,0,1,0,0,0,0,0,0,0,0],"split_type":[0,0,0,0,0,0,0,0,0,0,0,0,0,0,0,0,0,0,0],"sum_hessian":[2.7673996E2,2.6719843E2,9.5415325E0,2.5210861E2,1.5089805E1,6.55126E0,2.9902728E0,2.3676082E2,1.53478E1,1.2453173E0,1.3844487E1,1.3240178E0,1.6662551E0,2.2709323E2,9.667578E0,6.2586093E0,9.089191E0,6.6429377E0,7.2015495E0],"tree_param":{"num_deleted":"0","num_feature":"5","num_nodes":"19","size_leaf_vector":"1"}},{"base_weights":[-3.7709735E-3,-2.7338807E-2,6.116147E-1,1.5664542E-2,-6.764959E-1,8.377642E-1,-2.7316937E-3,1.0838376E-1,-2.2978629E-1,-1.0330198E0,3.579044E-2,1.5062395E-2,5.007978E-2,2.058925E-3,3.4889773E-2,-6.9368385E-2,-5.6365686E-3,-1.0065668E-1,-8.137809E-3],"categories":[],"categories_nodes":[],"categories_segments":[],"categories_sizes":[],"default_left":[0,0,0,0,0,0,0,0,0,0,0,0,0,0,0,0,0,0,0],"id":53,"left_children":[1,3,5,7,9,11,-1,13,15,17,-1,-1,-1,-1,-1,-1,-1,-1,-1],"loss_changes":[4.034743E0,7.485933E0,1.5918872E0,5.7626715E0,9.0091E0,3.7704515E-1,0E0,7.2468786E0,9.25368E0,1.1334502E1,0E0,0E0,0E0,0E0,0E0,0E0,0E0,0E0,0E0],"parents":[2147483647,0,0,1,1,2,2,3,3,4,4,5,5,7,7,8,8,9,9],"right_children":[2,4,6,8,10,12,-1,14,16,18,-1,-1,-1,-1,-1,-1,-1,-1,-1],"split_conditions":[3.1364563E-1,2.7379644E-1,9.765358E-2,6.031822E1,6.246981E1,8.8225044E-2,-2.7316937E-3,5.872244E1,6.170784E1,1.3979977E-1,3.579044E-2,1.5062395E-2,5.007978E-2,2.058925E-3,3.4889773E-2,-6.9368385E-2,-5.6365686E-3,-1.0065668E-1,-8.137809E-3],"split_indices":[1,1,3,2,2,3,0,2,2,3,0,0,0,0,0,0,0,0,0],"split_type":[0,0,0,0,0,0,0,0,0,0,0,0,0,0,0,0,0,0,0],"sum_hessian":[2.760418E2,2.6678033E2,9.261488E0,2.5112073E2,1.5659598E1,6.722266E0,2.539222E0,1.8267395E2,6.844678E1,1.2672607E1,2.9869914E0,2.2366002E0,4.4856663E0,1.6493748E2,1.773646E1,5.2891316E0,6.3157646E1,5.3424983E0,7.330109E0],"tree_param":{"num_deleted":"0","num_feature":"5","num_nodes":"19","size_leaf_vector":"1"}},{"base_weights":[-3.736772E-3,1.2185007E-2,-4.4231053E-2,-1.0274057E-2,5.96525E-1,4.357858E-2,-5.3155774E-1,7.299828E-2,4.615308E-2,-4.3670437E-3,9.727484E-3,-6.776586E-2,-1.1269249E-2,4.5647934E-2,-8.115685E-2],"categories":[],"categories_nodes":[],"categories_segments":[],"categories_sizes":[],"default_left":[0,0,0,0,0,0,0,0,0,0,0,0,0,0,0],"id":54,"left_children":[1,3,-1,5,7,9,11,13,-1,-1,-1,-1,-1,-1,-1],"loss_changes":[3.888813E0,3.583411E0,0E0,7.419578E0,1.6602125E0,4.7552533E0,5.935832E0,8.559469E0,0E0,0E0,0E0,0E0,0E0,0E0,0E0],"parents":[2147483647,0,0,1,1,3,3,4,4,5,5,6,6,7,7],"right_children":[2,4,-1,6,8,10,12,14,-1,-1,-1,-1,-1,-1,-1],"split_conditions":[7.518101E1,3.1364563E-1,-4.4231053E-2,2.6832277E-1,3.1329575E-3,1.7549154E-1,9.360677E-2,3.147318E-1,4.615308E-2,-4.3670437E-3,9.727484E-3,-6.776586E-2,-1.1269249E-2,4.5647934E-2,-8.115685E-2],"split_indices":[2,1,0,1,0,1,3,1,0,0,0,0,0,0,0],"split_type":[0,0,0,0,0,0,0,0,0,0,0,0,0,0,0],"sum_hessian":[2.755038E2,2.7158124E2,3.9226003E0,2.6247543E2,9.105805E0,2.3872925E2,2.3746176E1,3.9678385E0,5.137967E0,1.2808107E2,1.1064817E2,5.505894E0,1.8240282E1,2.962494E0,1.0053447E0],"tree_param":{"num_deleted":"0","num_feature":"5","num_nodes":"15","size_leaf_vector":"1"}},{"base_weights":[-3.9171954E-3,3.8270003E-1,-3.922994E-2,9.377983E-1,-1.344274E-1,-1.0713935E0,3.2269493E-2,1.8169953E-2,5.390347E-2,-6.573134E-2,3.3956036E-1,2.5327886E-2,-6.928133E-2,1.1444424E0,-6.36338E-3,3.4788564E-2,-4.811996E-2,3.351019E-2,7.842517E-2,-7.0648305E-2,1.7815921E-3],"categories":[],"categories_nodes":[],"categories_segments":[],"categories_sizes":[],"default_left":[0,0,0,0,0,0,0,0,0,0,0,0,0,0,0,0,0,0,0,0,0],"id":55,"left_children":[1,3,5,7,9,11,13,-1,-1,-1,15,-1,-1,17,19,-1,-1,-1,-1,-1,-1],"loss_changes":[3.7815924E0,6.7809143E0,1.8757845E1,5.19207E-1,7.649593E0,8.866112E0,1.0243635E1,0E0,0E0,0E0,5.2988553E0,0E0,0E0,5.58301E-1,1.3709673E1,0E0,0E0,0E0,0E0,0E0,0E0],"parents":[2147483647,0,0,1,1,2,2,3,3,4,4,5,5,6,6,10,10,13,13,14,14],"right_children":[2,4,6,8,10,12,14,-1,-1,-1,16,-1,-1,18,20,-1,-1,-1,-1,-1,-1],"split_conditions":[3.0823478E-2,1.004426E-1,4.0216725E-2,2.886378E-2,1.0584817E-1,-1.938899E-2,4.100222E-2,1.8169953E-2,5.390347E-2,-6.573134E-2,-2.8733735E-4,2.5327886E-2,-6.928133E-2,5.8944412E1,4.7533467E-2,3.4788564E-2,-4.811996E-2,3.351019E-2,7.842517E-2,-7.0648305E-2,1.7815921E-3],"split_indices":[3,1,3,3,1,0,3,0,0,0,0,0,0,2,3,0,0,0,0,0,0],"split_type":[0,0,0,0,0,0,0,0,0,0,0,0,0,0,0,0,0,0,0,0,0],"sum_hessian":[2.74889E2,2.2183058E1,2.5270593E2,1.030641E1,1.1876649E1,1.54652605E1,2.3724068E2,2.7276375E0,7.578772E0,2.8949249E0,8.981724E0,2.4666584E0,1.2998603E1,7.003335E0,2.3023734E2,7.417832E0,1.5638921E0,4.5242205E0,2.4791148E0,5.7282276E0,2.2450911E2],"tree_param":{"num_deleted":"0","num_feature":"5","num_nodes":"21","size_leaf_vector":"1"}},{"base_weights":[-3.8025232E-3,1.8852428E-2,-6.00695E-1,-6.89335E-3,7.03764E-1,-5.5519324E-2,4.758271E-1,1.19162E-1,-1.2895046E-1,1.000405E-2,4.2980175E-2,6.629775E-3,3.3239763E-2,-1.9818904E-2,1.222593E-2,-4.3064747E-2,-2.6716155E-4],"categories":[],"categories_nodes":[],"categories_segments":[],"categories_sizes":[],"default_left":[0,0,0,0,0,0,0,0,0,0,0,0,0,0,0,0,0],"id":56,"left_children":[1,3,5,7,9,-1,11,13,15,-1,-1,-1,-1,-1,-1,-1,-1],"loss_changes":[3.7275484E0,4.690742E0,6.058981E0,3.971093E0,5.844412E-1,0E0,1.6732538E-1,8.304348E0,1.1863132E1,0E0,0E0,0E0,0E0,0E0,0E0,0E0,0E0],"parents":[2147483647,0,0,1,1,2,2,3,3,4,4,6,6,7,7,8,8],"right_children":[2,4,6,8,10,-1,12,14,16,-1,-1,-1,-1,-1,-1,-1,-1],"split_conditions":[7.3183945E1,7.16284E1,1.2349662E-1,4.8815945E1,1.4196175E-1,-5.5519324E-2,2.9593399E-3,-1.1545006E-2,5.447518E1,1.000405E-2,4.2980175E-2,6.629775E-3,3.3239763E-2,-1.9818904E-2,1.222593E-2,-4.3064747E-2,-2.6716155E-4],"split_indices":[2,2,3,2,1,0,0,0,2,0,0,0,0,0,0,0,0],"split_type":[0,0,0,0,0,0,0,0,0,0,0,0,0,0,0,0,0],"sum_hessian":[2.7381638E2,2.6473676E2,9.079621E0,2.560999E2,8.636842E0,6.140755E0,2.9388661E0,1.2599815E2,1.3010176E2,2.5804746E0,6.056367E0,1.6477193E0,1.291147E0,2.4221811E1,1.0177634E2,1.7926048E1,1.1217571E2],"tree_param":{"num_deleted":"0","num_feature":"5","num_nodes":"17","size_leaf_vector":"1"}},{"base_weights":[-3.6561133E-3,-2.5580697E-2,5.819726E-1,1.4861101E-2,-6.294355E-1,7.5781696E-2,4.510849E-2,1.0284236E-1,-2.1949121E-1,-9.695412E-1,3.5483304E-2,4.52695E-2,-7.828094E-2,1.9252284E-3,3.353742E-2,-6.757969E-2,-5.2986736E-3,-9.409573E-2,-7.7912505E-3],"categories":[],"categories_nodes":[],"categories_segments":[],"categories_sizes":[],"default_left":[0,0,0,0,0,0,0,0,0,0,0,0,0,0,0,0,0,0,0],"id":57,"left_children":[1,3,5,7,9,11,-1,13,15,17,-1,-1,-1,-1,-1,-1,-1,-1,-1],"loss_changes":[3.5326977E0,6.4821525E0,1.5409544E0,5.1646643E0,8.275623E0,8.142894E0,0E0,6.6240664E0,8.645885E0,9.883987E0,0E0,0E0,0E0,0E0,0E0,0E0,0E0,0E0,0E0],"parents":[2147483647,0,0,1,1,2,2,3,3,4,4,5,5,7,7,8,8,9,9],"right_children":[2,4,6,8,10,12,-1,14,16,18,-1,-1,-1,-1,-1,-1,-1,-1,-1],"split_conditions":[3.1364563E-1,2.7379644E-1,3.1329575E-3,6.031822E1,6.246981E1,3.147318E-1,4.510849E-2,5.872244E1,6.170784E1,1.3979977E-1,3.5483304E-2,4.52695E-2,-7.828094E-2,1.9252284E-3,3.353742E-2,-6.757969E-2,-5.2986736E-3,-9.409573E-2,-7.7912505E-3],"split_indices":[1,1,0,2,2,1,0,2,2,3,0,0,0,0,0,0,0,0,0],"split_type":[0,0,0,0,0,0,0,0,0,0,0,0,0,0,0,0,0,0,0],"sum_hessian":[2.7297992E2,2.6405078E2,8.929131E0,2.4839078E2,1.5660015E1,3.9389012E0,4.990229E0,1.8100027E2,6.739051E1,1.2708324E1,2.9516907E0,2.914326E0,1.0245754E0,1.6354063E2,1.7459635E1,5.1475897E0,6.224292E1,5.3721266E0,7.3361983E0],"tree_param":{"num_deleted":"0","num_feature":"5","num_nodes":"19","size_leaf_vector":"1"}},{"base_weights":[-3.7880333E-3,1.0842081E-2,-4.312707E-2,4.6604484E-2,-3.5051838E-1,-1.2529971E-2,4.7405905E-1,-8.8011704E-2,-5.2069455E-2,4.3679704E-4,-7.22609E-2,-1.935659E-2,3.25548E-2,5.9620617E-3,-7.3381506E-2],"categories":[],"categories_nodes":[],"categories_segments":[],"categories_sizes":[],"default_left":[0,0,0,0,0,0,0,0,0,0,0,0,0,0,0],"id":58,"left_children":[1,3,-1,5,7,9,11,-1,13,-1,-1,-1,-1,-1,-1],"loss_changes":[3.4439607E0,3.5027955E0,0E0,6.2335625E0,1.0179363E1,6.6364007E0,4.8209076E0,0E0,5.310593E0,0E0,0E0,0E0,0E0,0E0,0E0],"parents":[2147483647,0,0,1,1,3,3,4,4,5,5,6,6,8,8],"right_children":[2,4,-1,6,8,10,12,-1,14,-1,-1,-1,-1,-1,-1],"split_conditions":[7.518101E1,1.4865897E-2,-4.312707E-2,1.0618135E-2,1.6787248E-2,9.707615E-3,5.2569956E-2,-8.8011704E-2,1.438256E-1,4.3679704E-4,-7.22609E-2,-1.935659E-2,3.25548E-2,5.9620617E-3,-7.3381506E-2],"split_indices":[2,0,0,0,0,0,3,0,3,0,0,0,0,0,0],"split_type":[0,0,0,0,0,0,0,0,0,0,0,0,0,0,0],"sum_hessian":[2.7237646E2,2.687847E2,3.5917645E0,2.4537222E2,2.341248E1,2.1640521E2,2.8967009E1,3.2348428E0,2.0177637E1,2.1421939E2,2.1858342E0,4.737048E0,2.422996E1,1.8816263E1,1.3613738E0],"tree_param":{"num_deleted":"0","num_feature":"5","num_nodes":"15","size_leaf_vector":"1"}},{"base_weights":[-4.5341E-3,3.6881658E-1,-3.8242392E-2,9.195219E-1,-1.4485472E-1,-1.040947E0,2.989888E-2,1.818042E-2,5.280263E-2,-6.404664E-2,3.1410033E-1,2.5098572E-2,-6.790572E-2,1.1117724E0,-7.7846E-3,3.295383E-2,-4.6721924E-2,3.2669853E-2,7.551668E-2,-6.871044E-2,1.6190866E-3],"categories":[],"categories_nodes":[],"categories_segments":[],"categories_sizes":[],"default_left":[0,0,0,0,0,0,0,0,0,0,0,0,0,0,0,0,0,0,0,0,0],"id":59,"left_children":[1,3,5,7,9,11,13,-1,-1,-1,15,-1,-1,17,19,-1,-1,-1,-1,-1,-1],"loss_changes":[3.4474852E0,6.5505295E0,1.7189684E1,4.5729446E-1,6.9728017E0,8.515499E0,9.63503E0,0E0,0E0,0E0,4.827633E0,0E0,0E0,4.663887E-1,1.2622142E1,0E0,0E0,0E0,0E0,0E0,0E0],"parents":[2147483647,0,0,1,1,2,2,3,3,4,4,5,5,6,6,10,10,13,13,14,14],"right_children":[2,4,6,8,10,12,14,-1,-1,-1,16,-1,-1,18,20,-1,-1,-1,-1,-1,-1],"split_conditions":[3.0823478E-2,1.004426E-1,4.0216725E-2,2.886378E-2,1.0584817E-1,-1.938899E-2,4.100222E-2,1.818042E-2,5.280263E-2,-6.404664E-2,-2.8733735E-4,2.5098572E-2,-6.790572E-2,5.8944412E1,4.7533467E-2,3.295383E-2,-4.6721924E-2,3.2669853E-2,7.551668E-2,-6.871044E-2,1.6190866E-3],"split_indices":[3,1,3,3,1,0,3,0,0,0,0,0,0,2,3,0,0,0,0,0,0],"split_type":[0,0,0,0,0,0,0,0,0,0,0,0,0,0,0,0,0,0,0,0,0],"sum_hessian":[2.71815E2,2.1685583E1,2.5012943E2,1.0084223E1,1.160136E1,1.5008073E1,2.3512135E2,2.7106066E0,7.373616E0,2.8228412E0,8.778519E0,2.4597077E0,1.2548365E1,6.9546275E0,2.2816673E2,7.2479916E0,1.5305272E0,4.462177E0,2.4924505E0,5.5670633E0,2.2259967E2],"tree_param":{"num_deleted":"0","num_feature":"5","num_nodes":"21","size_leaf_vector":"1"}},{"base_weights":[-4.393595E-3,1.6613187E-2,-5.7521224E-1,-8.053449E-3,6.8699306E-1,-5.470063E-2,4.7109005E-1,1.0936648E-1,-1.2929983E-1,9.6952915E-3,8.412368E-1,3.3139057E-2,6.2077865E-3,-2.0113712E-2,1.1603936E-2,-5.187835E-2,-4.2704536E-4,4.6384867E-2,1.61816E-2],"categories":[],"categories_nodes":[],"categories_segments":[],"categories_sizes":[],"default_left":[0,0,0,0,0,0,0,0,0,0,0,0,0,0,0,0,0,0,0],"id":60,"left_children":[1,3,5,7,9,-1,11,13,15,-1,17,-1,-1,-1,-1,-1,-1,-1,-1],"loss_changes":[3.2681222E0,4.3557577E0,5.7665267E0,3.6406357E0,5.47842E-1,0E0,1.7745566E-1,8.252067E0,1.378688E1,0E0,5.022526E-3,0E0,0E0,0E0,0E0,0E0,0E0,0E0,0E0],"parents":[2147483647,0,0,1,1,2,2,3,3,4,4,6,6,7,7,8,8,10,10],"right_children":[2,4,6,8,10,-1,12,14,16,-1,18,-1,-1,-1,-1,-1,-1,-1,-1],"split_conditions":[7.3183945E1,7.16284E1,1.2349662E-1,4.9756035E1,1.4196175E-1,-5.470063E-2,1.3348001E-1,-1.1545006E-2,5.447518E1,9.6952915E-3,2.9593399E-3,3.3139057E-2,6.2077865E-3,-2.0113712E-2,1.1603936E-2,-5.187835E-2,-4.2704536E-4,4.6384867E-2,1.61816E-2],"split_indices":[2,2,3,2,1,0,3,0,2,0,0,0,0,0,0,0,0,0,0],"split_type":[0,0,0,0,0,0,0,0,0,0,0,0,0,0,0,0,0,0,0],"sum_hessian":[2.7074954E2,2.6207574E2,8.673793E0,2.5372783E2,8.347932E0,5.7681193E0,2.9056737E0,1.2894765E2,1.2478017E2,2.5269387E0,5.820993E0,1.2851812E0,1.6204925E0,2.4503538E1,1.04444115E2,1.3752335E1,1.1102783E2,4.308941E0,1.5120519E0],"tree_param":{"num_deleted":"0","num_feature":"5","num_nodes":"19","size_leaf_vector":"1"}},{"base_weights":[-4.187317E-3,-2.5286516E-2,5.6506276E-1,2.3891537E-2,-5.0103396E-1,7.9620564E-1,-4.944279E-3,-9.890042E-2,1.6656852E-1,-1.6369529E-1,-1.1585096E0,1.2944884E-2,4.8499953E-2,3.8045198E-3,-2.30366E-2,-7.951821E-3,1.5286269E-2,-2.4429994E-2,2.8041098E-2,-9.356934E-2,1.1563764E-3],"categories":[],"categories_nodes":[],"categories_segments":[],"categories_sizes":[],"default_left":[0,0,0,0,0,0,0,0,0,0,0,0,0,0,0,0,0,0,0,0,0],"id":61,"left_children":[1,3,5,7,9,11,-1,13,15,17,19,-1,-1,-1,-1,-1,-1,-1,-1,-1,-1],"loss_changes":[3.2685363E0,6.1469293E0,1.5714254E0,4.1967726E0,5.2690315E0,4.3290472E-1,0E0,8.194586E0,5.066252E0,4.3771353E0,6.9348164E0,0E0,0E0,0E0,0E0,0E0,0E0,0E0,0E0,0E0,0E0],"parents":[2147483647,0,0,1,1,2,2,3,3,4,4,5,5,7,7,8,8,9,9,10,10],"right_children":[2,4,6,8,10,12,-1,14,16,18,20,-1,-1,-1,-1,-1,-1,-1,-1,-1,-1],"split_conditions":[3.1364563E-1,2.6832277E-1,9.765358E-2,1.7549154E-1,5.521493E-3,8.8225044E-2,-4.944279E-3,5.9459812E1,3.955037E1,5.972263E1,1.2560073E-1,1.2944884E-2,4.8499953E-2,3.8045198E-3,-2.30366E-2,-7.951821E-3,1.5286269E-2,-2.4429994E-2,2.8041098E-2,-9.356934E-2,1.1563764E-3],"split_indices":[1,1,3,1,0,3,0,2,2,2,3,0,0,0,0,0,0,0,0,0,0],"split_type":[0,0,0,0,0,0,0,0,0,0,0,0,0,0,0,0,0,0,0,0,0],"sum_hessian":[2.699453E2,2.6121884E2,8.726472E0,2.3760713E2,2.3611689E1,6.325242E0,2.4012294E0,1.2786749E2,1.0973965E2,1.6430485E1,7.181204E0,2.1543715E0,4.170871E0,8.671813E1,4.1149357E1,3.281497E1,7.692468E1,1.1568358E1,4.8621273E0,4.114948E0,3.066256E0],"tree_param":{"num_deleted":"0","num_feature":"5","num_nodes":"21","size_leaf_vector":"1"}},{"base_weights":[-4.112523E-3,3.6159095E-1,-3.6794823E-2,9.0170676E-1,-1.4250825E-1,-1.0112686E0,2.8018406E-2,1.747766E-2,5.197369E-2,-6.2320095E-2,3.0203858E-1,2.5170026E-2,-6.663213E-2,1.0838313E0,-8.7228045E-3,3.181463E-2,-4.5391418E-2,3.1596247E-2,7.354222E-2,-6.6908866E-2,1.4786433E-3],"categories":[],"categories_nodes":[],"categories_segments":[],"categories_sizes":[],"default_left":[0,0,0,0,0,0,0,0,0,0,0,0,0,0,0,0,0,0,0,0,0],"id":62,"left_children":[1,3,5,7,9,11,13,-1,-1,-1,15,-1,-1,17,19,-1,-1,-1,-1,-1,-1],"loss_changes":[3.243426E0,6.190198E0,1.5754476E1,4.6459484E-1,6.451321E0,8.242639E0,9.103765E0,0E0,0E0,0E0,4.4720984E0,0E0,0E0,4.507723E-1,1.1624518E1,0E0,0E0,0E0,0E0,0E0,0E0],"parents":[2147483647,0,0,1,1,2,2,3,3,4,4,5,5,6,6,10,10,13,13,14,14],"right_children":[2,4,6,8,10,12,14,-1,-1,-1,16,-1,-1,18,20,-1,-1,-1,-1,-1,-1],"split_conditions":[3.0823478E-2,1.004426E-1,4.0216725E-2,2.886378E-2,1.0584817E-1,3.5810963E1,4.100222E-2,1.747766E-2,5.197369E-2,-6.2320095E-2,-2.8733735E-4,2.5170026E-2,-6.663213E-2,5.8944412E1,4.7533467E-2,3.181463E-2,-4.5391418E-2,3.1596247E-2,7.354222E-2,-6.6908866E-2,1.4786433E-3],"split_indices":[3,1,3,3,1,2,3,0,0,0,0,0,0,2,3,0,0,0,0,0,0],"split_type":[0,0,0,0,0,0,0,0,0,0,0,0,0,0,0,0,0,0,0,0,0],"sum_hessian":[2.6925708E2,2.126339E1,2.479937E2,9.884219E0,1.137917E1,1.4554995E1,2.334387E2,2.680076E0,7.2041435E0,2.749036E0,8.630134E0,2.44851E0,1.2106484E1,6.8918605E0,2.2654684E2,7.133436E0,1.4966979E0,4.393959E0,2.4979014E0,5.392711E0,2.2115414E2],"tree_param":{"num_deleted":"0","num_feature":"5","num_nodes":"21","size_leaf_vector":"1"}},{"base_weights":[-3.990133E-3,3.0068776E-2,-3.468597E-1,-2.7186776E-2,4.5055184E-1,-8.400114E-2,-6.021837E-2,-6.3863564E-3,-6.900447E-2,6.910684E-1,-1.3904952E-1,1.071551E-1,-7.151069E-2,-6.498533E-3,5.760317E-3,-1.6015066E-2,4.850868E-2,3.737278E-2,-9.218094E-2,-2.7508104E-2,3.517012E-2],"categories":[],"categories_nodes":[],"categories_segments":[],"categories_sizes":[],"default_left":[0,0,0,0,0,0,0,0,0,0,0,0,0,0,0,0,0,0,0,0,0],"id":63,"left_children":[1,3,5,7,9,-1,11,13,-1,15,17,19,-1,-1,-1,-1,-1,-1,-1,-1,-1],"loss_changes":[3.154123E0,5.9298487E0,9.22485E0,6.105748E0,4.2816033E0,0E0,4.9968333E0,3.2457383E0,0E0,6.2755747E0,1.5558499E1,8.128986E0,0E0,0E0,0E0,0E0,0E0,0E0,0E0,0E0,0E0],"parents":[2147483647,0,0,1,1,2,2,3,3,4,4,6,6,7,7,9,9,10,10,11,11],"right_children":[2,4,6,8,10,-1,12,14,-1,16,18,20,-1,-1,-1,-1,-1,-1,-1,-1,-1],"split_conditions":[1.4865897E-2,1.0690319E-2,1.6787248E-2,9.707615E-3,5.8527252E1,-8.400114E-2,1.438256E-1,1.7549154E-1,-6.900447E-2,5.2569956E-2,1.6913344E-1,1.05419636E-1,-7.151069E-2,-6.498533E-3,5.760317E-3,-1.6015066E-2,4.850868E-2,3.737278E-2,-9.218094E-2,-2.7508104E-2,3.517012E-2],"split_indices":[0,0,0,0,2,0,3,1,0,3,1,3,0,0,0,0,0,0,0,0,0],"split_type":[0,0,0,0,0,0,0,0,0,0,0,0,0,0,0,0,0,0,0,0,0],"sum_hessian":[2.682034E2,2.4479865E2,2.3404743E1,2.1628351E2,2.8515144E1,3.2814984E0,2.0123245E1,2.1399808E2,2.2854276E0,2.0130995E1,8.38415E0,1.8753855E1,1.3693898E0,1.06095695E2,1.07902374E2,4.3220277E0,1.5808968E1,5.8850017E0,2.4991477E0,8.956876E0,9.79698E0],"tree_param":{"num_deleted":"0","num_feature":"5","num_nodes":"21","size_leaf_vector":"1"}},{"base_weights":[-4.633068E-3,4.657787E-1,-2.9439004E-2,-7.21757E-1,8.6604595E-1,-1.0834213E0,-9.228633E-3,-9.986278E-2,3.7717156E-2,5.3786825E-2,2.543517E-3,-9.881701E-2,2.2192407E-4,3.5602582E-1,-4.3848082E-2,4.424475E-2,-6.83614E-3,-4.8571803E-2,9.969758E-4],"categories":[],"categories_nodes":[],"categories_segments":[],"categories_sizes":[],"default_left":[0,0,0,0,0,0,0,0,0,0,0,0,0,0,0,0,0,0,0],"id":64,"left_children":[1,3,5,7,9,11,13,-1,-1,-1,-1,-1,-1,15,17,-1,-1,-1,-1],"loss_changes":[3.1455805E0,7.0436997E0,5.4407806E0,8.942606E0,1.7493138E0,4.6770024E0,3.2031748E0,0E0,0E0,0E0,0E0,0E0,0E0,5.8369646E0,1.3696125E1,0E0,0E0,0E0,0E0],"parents":[2147483647,0,0,1,1,2,2,3,3,4,4,5,5,6,6,13,13,14,14],"right_children":[2,4,6,8,10,12,14,-1,-1,-1,-1,-1,-1,16,18,-1,-1,-1,-1],"split_conditions":[2.4655264E1,1.8246632E1,2.88945E1,-2.5012053E-3,-1.0350198E-2,2.8301366E-3,3.0823478E-2,-9.986278E-2,3.7717156E-2,5.3786825E-2,2.543517E-3,-9.881701E-2,2.2192407E-4,1.004426E-1,4.0216725E-2,4.424475E-2,-6.83614E-3,-4.8571803E-2,9.969758E-4],"split_indices":[2,2,2,0,0,0,3,0,0,0,0,0,0,1,3,0,0,0,0],"split_type":[0,0,0,0,0,0,0,0,0,0,0,0,0,0,0,0,0,0,0],"sum_hessian":[2.673921E2,1.2503467E1,2.5488861E2,2.9495087E0,9.553958E0,3.8058186E0,2.510828E2,1.3928683E0,1.5566404E0,7.344951E0,2.209007E0,1.6416358E0,2.1641827E0,2.0933952E1,2.3014883E2,9.713055E0,1.1220898E1,1.3892811E1,2.1625603E2],"tree_param":{"num_deleted":"0","num_feature":"5","num_nodes":"19","size_leaf_vector":"1"}},{"base_weights":[-4.803967E-3,-2.8542375E-2,4.7815657E-1,-2.6694275E-3,-7.1439184E-2,7.821832E-1,6.402417E-2,-4.4779245E-2,8.5483766E-1,1.3127071E-2,4.769255E-2,-7.414668E-2,3.829627E-2,-6.969646E-4,-1.1354001E-1,8.700105E-3,4.8718438E-2],"categories":[],"categories_nodes":[],"categories_segments":[],"categories_sizes":[],"default_left":[0,0,0,0,0,0,0,0,0,0,0,0,0,0,0,0,0],"id":65,"left_children":[1,3,5,7,-1,9,11,13,15,-1,-1,-1,-1,-1,-1,-1,-1],"loss_changes":[3.0833633E0,9.276193E0,1.536396E0,9.156196E0,0E0,3.897996E-1,8.110419E0,1.6556913E1,7.963953E-1,0E0,0E0,0E0,0E0,0E0,0E0,0E0,0E0],"parents":[2147483647,0,0,1,1,2,2,3,3,5,5,6,6,7,7,8,8],"right_children":[2,4,6,8,-1,10,12,14,16,-1,-1,-1,-1,-1,-1,-1,-1],"split_conditions":[3.1077155E-1,1.5925221E-1,9.765358E-2,1.3979977E-1,-7.1439184E-2,8.8225044E-2,1.438256E-1,1.3394396E-1,2.2811799E-1,1.3127071E-2,4.769255E-2,-7.414668E-2,3.829627E-2,-6.969646E-4,-1.1354001E-1,8.700105E-3,4.8718438E-2],"split_indices":[1,3,3,3,0,3,3,3,1,0,0,0,0,0,0,0,0],"split_type":[0,0,0,0,0,0,0,0,0,0,0,0,0,0,0,0,0],"sum_hessian":[2.6675336E2,2.55153E2,1.1600344E1,2.5150768E2,3.645325E0,6.1769433E0,5.4234004E0,2.4063837E2,1.086931E1,2.1619718E0,4.0149717E0,1.3454196E0,4.0779805E0,2.3834256E2,2.2958064E0,1.9900305E0,8.879279E0],"tree_param":{"num_deleted":"0","num_feature":"5","num_nodes":"17","size_leaf_vector":"1"}},{"base_weights":[-4.908758E-3,1.4992264E-2,-5.596885E-1,-1.6285382E-2,5.204538E-1,-5.3918757E-2,4.601289E-1,1.3418665E-2,-6.588862E-1,-3.8857203E-2,6.84684E-1,6.064459E-3,3.2351356E-2,-1.7966488E-6,4.6483297E-2,-7.3439494E-2,1.4069115E-2,5.0828487E-2,1.3971922E-2],"categories":[],"categories_nodes":[],"categories_segments":[],"categories_sizes":[],"default_left":[0,0,0,0,0,0,0,0,0,0,0,0,0,0,0,0,0,0,0],"id":66,"left_children":[1,3,5,7,9,-1,11,13,15,-1,17,-1,-1,-1,-1,-1,-1,-1,-1],"loss_changes":[2.9605153E0,4.104762E0,5.4079466E0,4.6848183E0,3.7561622E0,0E0,1.641621E-1,2.8986301E0,8.67082E0,0E0,1.5936141E0,0E0,0E0,0E0,0E0,0E0,0E0,0E0,0E0],"parents":[2147483647,0,0,1,1,2,2,3,3,4,4,6,6,7,7,8,8,10,10],"right_children":[2,4,6,8,10,-1,12,14,16,-1,18,-1,-1,-1,-1,-1,-1,-1,-1],"split_conditions":[7.3183945E1,7.0627365E1,1.2349662E-1,6.723433E1,1.0010448E-1,-5.3918757E-2,2.9593399E-3,6.715919E1,8.167881E-2,-3.8857203E-2,1.4196175E-1,6.064459E-3,3.2351356E-2,-1.7966488E-6,4.6483297E-2,-7.3439494E-2,1.4069115E-2,5.0828487E-2,1.3971922E-2],"split_indices":[2,2,3,2,1,0,0,2,3,0,1,0,0,0,0,0,0,0,0],"split_type":[0,0,0,0,0,0,0,0,0,0,0,0,0,0,0,0,0,0,0],"sum_hessian":[2.6638602E2,2.5810043E2,8.285585E0,2.439714E2,1.4129017E1,5.454147E0,2.8314385E0,2.3412802E2,9.843385E0,1.168056E0,1.2960961E1,1.5927674E0,1.2386713E0,2.3172522E2,2.4027996E0,